digraph Tree {
node [shape=box, style="filled, rounded", color="black", fontname=helvetica] ;
edge [fontname=helvetica] ;
0 [label="title_punctuation_percent <= 0.05\ngini = 0.5\nsamples = 6807\nvalue = [5581, 5230]\nclass = 0", fillcolor="#fdf7f3"] ;
1 [label="title_capital_letters <= 5.5\ngini = 0.5\nsamples = 4239\nvalue = [3226, 3472]\nclass = 1", fillcolor="#f1f8fd"] ;
0 -> 1 [labeldistance=2.5, labelangle=45, headlabel="True"] ;
2 [label="n_of_tags <= 0.5\ngini = 0.49\nsamples = 1271\nvalue = [862, 1161]\nclass = 1", fillcolor="#cce6f8"] ;
1 -> 2 ;
3 [label="gini = 0.0\nsamples = 68\nvalue = [112, 0]\nclass = 0", fillcolor="#e58139"] ;
2 -> 3 ;
4 [label="dislikes/likes <= 0.04\ngini = 0.48\nsamples = 1203\nvalue = [750, 1161]\nclass = 1", fillcolor="#b9dcf6"] ;
2 -> 4 ;
5 [label="likes <= 24209.0\ngini = 0.49\nsamples = 715\nvalue = [496, 611]\nclass = 1", fillcolor="#daedfa"] ;
4 -> 5 ;
6 [label="dislikes/views <= 0.0\ngini = 0.48\nsamples = 435\nvalue = [263, 409]\nclass = 1", fillcolor="#b8dcf6"] ;
5 -> 6 ;
7 [label="dislikes/views <= 0.0\ngini = 0.5\nsamples = 239\nvalue = [194, 177]\nclass = 0", fillcolor="#fdf4ee"] ;
6 -> 7 ;
8 [label="avg_texts_coordX <= 307.12\ngini = 0.17\nsamples = 19\nvalue = [3, 29]\nclass = 1", fillcolor="#4da7e8"] ;
7 -> 8 ;
9 [label="gini = 0.0\nsamples = 16\nvalue = [0, 27]\nclass = 1", fillcolor="#399de5"] ;
8 -> 9 ;
10 [label="title_length <= 32.5\ngini = 0.48\nsamples = 3\nvalue = [3, 2]\nclass = 0", fillcolor="#f6d5bd"] ;
8 -> 10 ;
11 [label="gini = 0.0\nsamples = 1\nvalue = [0, 2]\nclass = 1", fillcolor="#399de5"] ;
10 -> 11 ;
12 [label="gini = 0.0\nsamples = 2\nvalue = [3, 0]\nclass = 0", fillcolor="#e58139"] ;
10 -> 12 ;
13 [label="title_punctuation_percent <= 0.03\ngini = 0.49\nsamples = 220\nvalue = [191, 148]\nclass = 0", fillcolor="#f9e3d2"] ;
7 -> 13 ;
14 [label="mean_v <= 0.25\ngini = 0.5\nsamples = 150\nvalue = [111, 117]\nclass = 1", fillcolor="#f5fafe"] ;
13 -> 14 ;
15 [label="std_h <= 0.06\ngini = 0.34\nsamples = 24\nvalue = [8, 29]\nclass = 1", fillcolor="#70b8ec"] ;
14 -> 15 ;
16 [label="gini = 0.0\nsamples = 1\nvalue = [2, 0]\nclass = 0", fillcolor="#e58139"] ;
15 -> 16 ;
17 [label="title_capital_letters_percent <= 0.12\ngini = 0.28\nsamples = 23\nvalue = [6, 29]\nclass = 1", fillcolor="#62b1ea"] ;
15 -> 17 ;
18 [label="gini = 0.0\nsamples = 12\nvalue = [0, 20]\nclass = 1", fillcolor="#399de5"] ;
17 -> 18 ;
19 [label="title_capital_letters_percent <= 0.13\ngini = 0.48\nsamples = 11\nvalue = [6, 9]\nclass = 1", fillcolor="#bddef6"] ;
17 -> 19 ;
20 [label="entropy <= 6.14\ngini = 0.24\nsamples = 5\nvalue = [6, 1]\nclass = 0", fillcolor="#e9965a"] ;
19 -> 20 ;
21 [label="gini = 0.0\nsamples = 4\nvalue = [6, 0]\nclass = 0", fillcolor="#e58139"] ;
20 -> 21 ;
22 [label="gini = 0.0\nsamples = 1\nvalue = [0, 1]\nclass = 1", fillcolor="#399de5"] ;
20 -> 22 ;
23 [label="gini = 0.0\nsamples = 6\nvalue = [0, 8]\nclass = 1", fillcolor="#399de5"] ;
19 -> 23 ;
24 [label="dislikes <= 14.5\ngini = 0.5\nsamples = 126\nvalue = [103, 88]\nclass = 0", fillcolor="#fbede2"] ;
14 -> 24 ;
25 [label="avg_texts_coordX <= 358.98\ngini = 0.41\nsamples = 28\nvalue = [35, 14]\nclass = 0", fillcolor="#efb388"] ;
24 -> 25 ;
26 [label="entropy <= 6.8\ngini = 0.36\nsamples = 27\nvalue = [35, 11]\nclass = 0", fillcolor="#eda977"] ;
25 -> 26 ;
27 [label="likes/views <= 0.01\ngini = 0.3\nsamples = 24\nvalue = [35, 8]\nclass = 0", fillcolor="#eb9e66"] ;
26 -> 27 ;
28 [label="gini = 0.0\nsamples = 2\nvalue = [0, 2]\nclass = 1", fillcolor="#399de5"] ;
27 -> 28 ;
29 [label="title_capital_letters <= 2.5\ngini = 0.25\nsamples = 22\nvalue = [35, 6]\nclass = 0", fillcolor="#e9975b"] ;
27 -> 29 ;
30 [label="desc_capital_letters_percent <= 0.05\ngini = 0.49\nsamples = 4\nvalue = [3, 4]\nclass = 1", fillcolor="#cee6f8"] ;
29 -> 30 ;
31 [label="gini = 0.0\nsamples = 2\nvalue = [3, 0]\nclass = 0", fillcolor="#e58139"] ;
30 -> 31 ;
32 [label="gini = 0.0\nsamples = 2\nvalue = [0, 4]\nclass = 1", fillcolor="#399de5"] ;
30 -> 32 ;
33 [label="desc_capital_letters_percent <= 0.14\ngini = 0.11\nsamples = 18\nvalue = [32, 2]\nclass = 0", fillcolor="#e78945"] ;
29 -> 33 ;
34 [label="n_of_tags <= 25.5\ngini = 0.06\nsamples = 17\nvalue = [32, 1]\nclass = 0", fillcolor="#e6853f"] ;
33 -> 34 ;
35 [label="gini = 0.0\nsamples = 15\nvalue = [31, 0]\nclass = 0", fillcolor="#e58139"] ;
34 -> 35 ;
36 [label="likes/views <= 0.03\ngini = 0.5\nsamples = 2\nvalue = [1, 1]\nclass = 0", fillcolor="#ffffff"] ;
34 -> 36 ;
37 [label="gini = 0.0\nsamples = 1\nvalue = [0, 1]\nclass = 1", fillcolor="#399de5"] ;
36 -> 37 ;
38 [label="gini = 0.0\nsamples = 1\nvalue = [1, 0]\nclass = 0", fillcolor="#e58139"] ;
36 -> 38 ;
39 [label="gini = 0.0\nsamples = 1\nvalue = [0, 1]\nclass = 1", fillcolor="#399de5"] ;
33 -> 39 ;
40 [label="gini = 0.0\nsamples = 3\nvalue = [0, 3]\nclass = 1", fillcolor="#399de5"] ;
26 -> 40 ;
41 [label="gini = 0.0\nsamples = 1\nvalue = [0, 3]\nclass = 1", fillcolor="#399de5"] ;
25 -> 41 ;
42 [label="dislikes <= 65.5\ngini = 0.5\nsamples = 98\nvalue = [68, 74]\nclass = 1", fillcolor="#eff7fd"] ;
24 -> 42 ;
43 [label="mean_s <= 0.6\ngini = 0.33\nsamples = 26\nvalue = [8, 30]\nclass = 1", fillcolor="#6eb7ec"] ;
42 -> 43 ;
44 [label="desc_punctuation_percent <= 0.03\ngini = 0.28\nsamples = 25\nvalue = [6, 30]\nclass = 1", fillcolor="#61b1ea"] ;
43 -> 44 ;
45 [label="gini = 0.0\nsamples = 2\nvalue = [2, 0]\nclass = 0", fillcolor="#e58139"] ;
44 -> 45 ;
46 [label="category_id <= 22.5\ngini = 0.21\nsamples = 23\nvalue = [4, 30]\nclass = 1", fillcolor="#53aae8"] ;
44 -> 46 ;
47 [label="gini = 0.0\nsamples = 11\nvalue = [0, 17]\nclass = 1", fillcolor="#399de5"] ;
46 -> 47 ;
48 [label="entropy <= 6.65\ngini = 0.36\nsamples = 12\nvalue = [4, 13]\nclass = 1", fillcolor="#76bbed"] ;
46 -> 48 ;
49 [label="views <= 73560.0\ngini = 0.49\nsamples = 8\nvalue = [4, 5]\nclass = 1", fillcolor="#d7ebfa"] ;
48 -> 49 ;
50 [label="likes/views <= 0.02\ngini = 0.28\nsamples = 5\nvalue = [1, 5]\nclass = 1", fillcolor="#61b1ea"] ;
49 -> 50 ;
51 [label="gini = 0.0\nsamples = 1\nvalue = [1, 0]\nclass = 0", fillcolor="#e58139"] ;
50 -> 51 ;
52 [label="gini = 0.0\nsamples = 4\nvalue = [0, 5]\nclass = 1", fillcolor="#399de5"] ;
50 -> 52 ;
53 [label="gini = 0.0\nsamples = 3\nvalue = [3, 0]\nclass = 0", fillcolor="#e58139"] ;
49 -> 53 ;
54 [label="gini = 0.0\nsamples = 4\nvalue = [0, 8]\nclass = 1", fillcolor="#399de5"] ;
48 -> 54 ;
55 [label="gini = 0.0\nsamples = 1\nvalue = [2, 0]\nclass = 0", fillcolor="#e58139"] ;
43 -> 55 ;
56 [label="desc_n_of_urls <= 8.5\ngini = 0.49\nsamples = 72\nvalue = [60, 44]\nclass = 0", fillcolor="#f8ddca"] ;
42 -> 56 ;
57 [label="pub_hour <= 5.5\ngini = 0.5\nsamples = 58\nvalue = [39, 42]\nclass = 1", fillcolor="#f1f8fd"] ;
56 -> 57 ;
58 [label="dislikes/likes <= 0.03\ngini = 0.29\nsamples = 12\nvalue = [14, 3]\nclass = 0", fillcolor="#eb9c63"] ;
57 -> 58 ;
59 [label="gini = 0.0\nsamples = 10\nvalue = [14, 0]\nclass = 0", fillcolor="#e58139"] ;
58 -> 59 ;
60 [label="gini = 0.0\nsamples = 2\nvalue = [0, 3]\nclass = 1", fillcolor="#399de5"] ;
58 -> 60 ;
61 [label="Neutral <= 0.5\ngini = 0.48\nsamples = 46\nvalue = [25, 39]\nclass = 1", fillcolor="#b8dcf6"] ;
57 -> 61 ;
62 [label="entropy <= 6.7\ngini = 0.44\nsamples = 38\nvalue = [18, 37]\nclass = 1", fillcolor="#99cdf2"] ;
61 -> 62 ;
63 [label="mean_v <= 0.55\ngini = 0.33\nsamples = 24\nvalue = [7, 27]\nclass = 1", fillcolor="#6cb6ec"] ;
62 -> 63 ;
64 [label="desc_n_of_words <= 3.5\ngini = 0.19\nsamples = 20\nvalue = [3, 25]\nclass = 1", fillcolor="#51a9e8"] ;
63 -> 64 ;
65 [label="gini = 0.0\nsamples = 1\nvalue = [1, 0]\nclass = 0", fillcolor="#e58139"] ;
64 -> 65 ;
66 [label="std_v <= 0.3\ngini = 0.14\nsamples = 19\nvalue = [2, 25]\nclass = 1", fillcolor="#49a5e7"] ;
64 -> 66 ;
67 [label="std_s <= 0.29\ngini = 0.5\nsamples = 4\nvalue = [2, 2]\nclass = 0", fillcolor="#ffffff"] ;
66 -> 67 ;
68 [label="gini = 0.0\nsamples = 1\nvalue = [1, 0]\nclass = 0", fillcolor="#e58139"] ;
67 -> 68 ;
69 [label="entropy <= 6.31\ngini = 0.44\nsamples = 3\nvalue = [1, 2]\nclass = 1", fillcolor="#9ccef2"] ;
67 -> 69 ;
70 [label="gini = 0.0\nsamples = 1\nvalue = [1, 0]\nclass = 0", fillcolor="#e58139"] ;
69 -> 70 ;
71 [label="gini = 0.0\nsamples = 2\nvalue = [0, 2]\nclass = 1", fillcolor="#399de5"] ;
69 -> 71 ;
72 [label="gini = 0.0\nsamples = 15\nvalue = [0, 23]\nclass = 1", fillcolor="#399de5"] ;
66 -> 72 ;
73 [label="mean_v <= 0.63\ngini = 0.44\nsamples = 4\nvalue = [4, 2]\nclass = 0", fillcolor="#f2c09c"] ;
63 -> 73 ;
74 [label="gini = 0.0\nsamples = 3\nvalue = [4, 0]\nclass = 0", fillcolor="#e58139"] ;
73 -> 74 ;
75 [label="gini = 0.0\nsamples = 1\nvalue = [0, 2]\nclass = 1", fillcolor="#399de5"] ;
73 -> 75 ;
76 [label="entropy <= 6.97\ngini = 0.5\nsamples = 14\nvalue = [11, 10]\nclass = 0", fillcolor="#fdf4ed"] ;
62 -> 76 ;
77 [label="desc_punctuation <= 15.5\ngini = 0.46\nsamples = 12\nvalue = [11, 6]\nclass = 0", fillcolor="#f3c6a5"] ;
76 -> 77 ;
78 [label="pub_day <= 4.5\ngini = 0.17\nsamples = 7\nvalue = [10, 1]\nclass = 0", fillcolor="#e88e4d"] ;
77 -> 78 ;
79 [label="gini = 0.0\nsamples = 1\nvalue = [0, 1]\nclass = 1", fillcolor="#399de5"] ;
78 -> 79 ;
80 [label="gini = 0.0\nsamples = 6\nvalue = [10, 0]\nclass = 0", fillcolor="#e58139"] ;
78 -> 80 ;
81 [label="avg_texts_coordY <= 253.75\ngini = 0.28\nsamples = 5\nvalue = [1, 5]\nclass = 1", fillcolor="#61b1ea"] ;
77 -> 81 ;
82 [label="gini = 0.0\nsamples = 4\nvalue = [0, 5]\nclass = 1", fillcolor="#399de5"] ;
81 -> 82 ;
83 [label="gini = 0.0\nsamples = 1\nvalue = [1, 0]\nclass = 0", fillcolor="#e58139"] ;
81 -> 83 ;
84 [label="gini = 0.0\nsamples = 2\nvalue = [0, 4]\nclass = 1", fillcolor="#399de5"] ;
76 -> 84 ;
85 [label="isFacebook <= 0.5\ngini = 0.35\nsamples = 8\nvalue = [7, 2]\nclass = 0", fillcolor="#eca572"] ;
61 -> 85 ;
86 [label="gini = 0.0\nsamples = 6\nvalue = [6, 0]\nclass = 0", fillcolor="#e58139"] ;
85 -> 86 ;
87 [label="std_h <= 0.26\ngini = 0.44\nsamples = 2\nvalue = [1, 2]\nclass = 1", fillcolor="#9ccef2"] ;
85 -> 87 ;
88 [label="gini = 0.0\nsamples = 1\nvalue = [1, 0]\nclass = 0", fillcolor="#e58139"] ;
87 -> 88 ;
89 [label="gini = 0.0\nsamples = 1\nvalue = [0, 2]\nclass = 1", fillcolor="#399de5"] ;
87 -> 89 ;
90 [label="desc_capital_letters_percent <= 0.09\ngini = 0.16\nsamples = 14\nvalue = [21, 2]\nclass = 0", fillcolor="#e78d4c"] ;
56 -> 90 ;
91 [label="gini = 0.0\nsamples = 10\nvalue = [17, 0]\nclass = 0", fillcolor="#e58139"] ;
90 -> 91 ;
92 [label="title_small_letters <= 24.5\ngini = 0.44\nsamples = 4\nvalue = [4, 2]\nclass = 0", fillcolor="#f2c09c"] ;
90 -> 92 ;
93 [label="gini = 0.0\nsamples = 2\nvalue = [4, 0]\nclass = 0", fillcolor="#e58139"] ;
92 -> 93 ;
94 [label="gini = 0.0\nsamples = 2\nvalue = [0, 2]\nclass = 1", fillcolor="#399de5"] ;
92 -> 94 ;
95 [label="mean_v <= 0.16\ngini = 0.4\nsamples = 70\nvalue = [80, 31]\nclass = 0", fillcolor="#efb286"] ;
13 -> 95 ;
96 [label="gini = 0.0\nsamples = 4\nvalue = [0, 7]\nclass = 1", fillcolor="#399de5"] ;
95 -> 96 ;
97 [label="dislikes/views <= 0.0\ngini = 0.36\nsamples = 66\nvalue = [80, 24]\nclass = 0", fillcolor="#eda774"] ;
95 -> 97 ;
98 [label="std_s <= 0.2\ngini = 0.22\nsamples = 41\nvalue = [61, 9]\nclass = 0", fillcolor="#e99456"] ;
97 -> 98 ;
99 [label="title_capital_letters <= 1.5\ngini = 0.28\nsamples = 4\nvalue = [1, 5]\nclass = 1", fillcolor="#61b1ea"] ;
98 -> 99 ;
100 [label="gini = 0.0\nsamples = 1\nvalue = [1, 0]\nclass = 0", fillcolor="#e58139"] ;
99 -> 100 ;
101 [label="gini = 0.0\nsamples = 3\nvalue = [0, 5]\nclass = 1", fillcolor="#399de5"] ;
99 -> 101 ;
102 [label="dislikes/likes <= 0.01\ngini = 0.12\nsamples = 37\nvalue = [60, 4]\nclass = 0", fillcolor="#e78946"] ;
98 -> 102 ;
103 [label="avg_texts_coordY <= 122.88\ngini = 0.47\nsamples = 5\nvalue = [5, 3]\nclass = 0", fillcolor="#f5cdb0"] ;
102 -> 103 ;
104 [label="gini = 0.0\nsamples = 2\nvalue = [4, 0]\nclass = 0", fillcolor="#e58139"] ;
103 -> 104 ;
105 [label="desc_n_of_urls <= 1.5\ngini = 0.38\nsamples = 3\nvalue = [1, 3]\nclass = 1", fillcolor="#7bbeee"] ;
103 -> 105 ;
106 [label="gini = 0.0\nsamples = 1\nvalue = [1, 0]\nclass = 0", fillcolor="#e58139"] ;
105 -> 106 ;
107 [label="gini = 0.0\nsamples = 2\nvalue = [0, 3]\nclass = 1", fillcolor="#399de5"] ;
105 -> 107 ;
108 [label="desc_small_letters_percent <= 0.85\ngini = 0.04\nsamples = 32\nvalue = [55, 1]\nclass = 0", fillcolor="#e5833d"] ;
102 -> 108 ;
109 [label="gini = 0.0\nsamples = 31\nvalue = [55, 0]\nclass = 0", fillcolor="#e58139"] ;
108 -> 109 ;
110 [label="gini = 0.0\nsamples = 1\nvalue = [0, 1]\nclass = 1", fillcolor="#399de5"] ;
108 -> 110 ;
111 [label="people <= 1.5\ngini = 0.49\nsamples = 25\nvalue = [19, 15]\nclass = 0", fillcolor="#fae4d5"] ;
97 -> 111 ;
112 [label="title_small_letters <= 48.5\ngini = 0.13\nsamples = 10\nvalue = [13, 1]\nclass = 0", fillcolor="#e78b48"] ;
111 -> 112 ;
113 [label="gini = 0.0\nsamples = 9\nvalue = [13, 0]\nclass = 0", fillcolor="#e58139"] ;
112 -> 113 ;
114 [label="gini = 0.0\nsamples = 1\nvalue = [0, 1]\nclass = 1", fillcolor="#399de5"] ;
112 -> 114 ;
115 [label="mean_s <= 0.18\ngini = 0.42\nsamples = 15\nvalue = [6, 14]\nclass = 1", fillcolor="#8ec7f0"] ;
111 -> 115 ;
116 [label="gini = 0.0\nsamples = 2\nvalue = [3, 0]\nclass = 0", fillcolor="#e58139"] ;
115 -> 116 ;
117 [label="avg_texts_coordY <= 241.25\ngini = 0.29\nsamples = 13\nvalue = [3, 14]\nclass = 1", fillcolor="#63b2eb"] ;
115 -> 117 ;
118 [label="desc_punctuation_percent <= 0.22\ngini = 0.13\nsamples = 10\nvalue = [1, 13]\nclass = 1", fillcolor="#48a5e7"] ;
117 -> 118 ;
119 [label="gini = 0.0\nsamples = 9\nvalue = [0, 13]\nclass = 1", fillcolor="#399de5"] ;
118 -> 119 ;
120 [label="gini = 0.0\nsamples = 1\nvalue = [1, 0]\nclass = 0", fillcolor="#e58139"] ;
118 -> 120 ;
121 [label="desc_small_letters_percent <= 0.75\ngini = 0.44\nsamples = 3\nvalue = [2, 1]\nclass = 0", fillcolor="#f2c09c"] ;
117 -> 121 ;
122 [label="gini = 0.0\nsamples = 2\nvalue = [2, 0]\nclass = 0", fillcolor="#e58139"] ;
121 -> 122 ;
123 [label="gini = 0.0\nsamples = 1\nvalue = [0, 1]\nclass = 1", fillcolor="#399de5"] ;
121 -> 123 ;
124 [label="likes <= 280.0\ngini = 0.35\nsamples = 196\nvalue = [69, 232]\nclass = 1", fillcolor="#74baed"] ;
6 -> 124 ;
125 [label="gini = 0.0\nsamples = 6\nvalue = [14, 0]\nclass = 0", fillcolor="#e58139"] ;
124 -> 125 ;
126 [label="dislikes/views <= 0.0\ngini = 0.31\nsamples = 190\nvalue = [55, 232]\nclass = 1", fillcolor="#68b4eb"] ;
124 -> 126 ;
127 [label="desc_small_letters_percent <= 0.76\ngini = 0.35\nsamples = 153\nvalue = [53, 178]\nclass = 1", fillcolor="#74baed"] ;
126 -> 127 ;
128 [label="desc_length <= 1767.5\ngini = 0.3\nsamples = 137\nvalue = [37, 167]\nclass = 1", fillcolor="#65b3eb"] ;
127 -> 128 ;
129 [label="faces <= 5.5\ngini = 0.25\nsamples = 117\nvalue = [26, 149]\nclass = 1", fillcolor="#5caeea"] ;
128 -> 129 ;
130 [label="title_n_of_words <= 3.5\ngini = 0.23\nsamples = 113\nvalue = [22, 148]\nclass = 1", fillcolor="#56ace9"] ;
129 -> 130 ;
131 [label="gini = 0.0\nsamples = 17\nvalue = [0, 32]\nclass = 1", fillcolor="#399de5"] ;
130 -> 131 ;
132 [label="desc_small_letters_percent <= 0.6\ngini = 0.27\nsamples = 96\nvalue = [22, 116]\nclass = 1", fillcolor="#5fb0ea"] ;
130 -> 132 ;
133 [label="title_small_letters <= 23.5\ngini = 0.48\nsamples = 9\nvalue = [6, 4]\nclass = 0", fillcolor="#f6d5bd"] ;
132 -> 133 ;
134 [label="likes/views <= 0.03\ngini = 0.49\nsamples = 6\nvalue = [3, 4]\nclass = 1", fillcolor="#cee6f8"] ;
133 -> 134 ;
135 [label="gini = 0.0\nsamples = 2\nvalue = [0, 3]\nclass = 1", fillcolor="#399de5"] ;
134 -> 135 ;
136 [label="desc_punctuation <= 8.0\ngini = 0.38\nsamples = 4\nvalue = [3, 1]\nclass = 0", fillcolor="#eeab7b"] ;
134 -> 136 ;
137 [label="gini = 0.0\nsamples = 1\nvalue = [0, 1]\nclass = 1", fillcolor="#399de5"] ;
136 -> 137 ;
138 [label="gini = 0.0\nsamples = 3\nvalue = [3, 0]\nclass = 0", fillcolor="#e58139"] ;
136 -> 138 ;
139 [label="gini = 0.0\nsamples = 3\nvalue = [3, 0]\nclass = 0", fillcolor="#e58139"] ;
133 -> 139 ;
140 [label="isTwitter <= 0.5\ngini = 0.22\nsamples = 87\nvalue = [16, 112]\nclass = 1", fillcolor="#55abe9"] ;
132 -> 140 ;
141 [label="comment_count/views <= 0.0\ngini = 0.1\nsamples = 49\nvalue = [4, 73]\nclass = 1", fillcolor="#44a2e6"] ;
140 -> 141 ;
142 [label="entropy <= 6.05\ngini = 0.41\nsamples = 5\nvalue = [2, 5]\nclass = 1", fillcolor="#88c4ef"] ;
141 -> 142 ;
143 [label="gini = 0.0\nsamples = 1\nvalue = [2, 0]\nclass = 0", fillcolor="#e58139"] ;
142 -> 143 ;
144 [label="gini = 0.0\nsamples = 4\nvalue = [0, 5]\nclass = 1", fillcolor="#399de5"] ;
142 -> 144 ;
145 [label="ocr_sentiment_compound <= -0.65\ngini = 0.06\nsamples = 44\nvalue = [2, 68]\nclass = 1", fillcolor="#3fa0e6"] ;
141 -> 145 ;
146 [label="gini = 0.0\nsamples = 1\nvalue = [1, 0]\nclass = 0", fillcolor="#e58139"] ;
145 -> 146 ;
147 [label="desc_length <= 35.0\ngini = 0.03\nsamples = 43\nvalue = [1, 68]\nclass = 1", fillcolor="#3c9ee5"] ;
145 -> 147 ;
148 [label="gini = 0.0\nsamples = 1\nvalue = [1, 0]\nclass = 0", fillcolor="#e58139"] ;
147 -> 148 ;
149 [label="gini = 0.0\nsamples = 42\nvalue = [0, 68]\nclass = 1", fillcolor="#399de5"] ;
147 -> 149 ;
150 [label="comment_count/views <= 0.01\ngini = 0.36\nsamples = 38\nvalue = [12, 39]\nclass = 1", fillcolor="#76bbed"] ;
140 -> 150 ;
151 [label="desc_capital_letters_percent <= 0.09\ngini = 0.49\nsamples = 22\nvalue = [12, 17]\nclass = 1", fillcolor="#c5e2f7"] ;
150 -> 151 ;
152 [label="desc_capital_letters <= 103.0\ngini = 0.49\nsamples = 18\nvalue = [12, 9]\nclass = 0", fillcolor="#f8e0ce"] ;
151 -> 152 ;
153 [label="entropy <= 5.08\ngini = 0.47\nsamples = 17\nvalue = [12, 7]\nclass = 0", fillcolor="#f4caac"] ;
152 -> 153 ;
154 [label="gini = 0.0\nsamples = 3\nvalue = [0, 3]\nclass = 1", fillcolor="#399de5"] ;
153 -> 154 ;
155 [label="dislikes/likes <= 0.03\ngini = 0.38\nsamples = 14\nvalue = [12, 4]\nclass = 0", fillcolor="#eeab7b"] ;
153 -> 155 ;
156 [label="title_small_letters_percent <= 0.65\ngini = 0.17\nsamples = 9\nvalue = [10, 1]\nclass = 0", fillcolor="#e88e4d"] ;
155 -> 156 ;
157 [label="gini = 0.0\nsamples = 1\nvalue = [0, 1]\nclass = 1", fillcolor="#399de5"] ;
156 -> 157 ;
158 [label="gini = 0.0\nsamples = 8\nvalue = [10, 0]\nclass = 0", fillcolor="#e58139"] ;
156 -> 158 ;
159 [label="desc_punctuation_percent <= 0.1\ngini = 0.48\nsamples = 5\nvalue = [2, 3]\nclass = 1", fillcolor="#bddef6"] ;
155 -> 159 ;
160 [label="gini = 0.0\nsamples = 3\nvalue = [0, 3]\nclass = 1", fillcolor="#399de5"] ;
159 -> 160 ;
161 [label="gini = 0.0\nsamples = 2\nvalue = [2, 0]\nclass = 0", fillcolor="#e58139"] ;
159 -> 161 ;
162 [label="gini = 0.0\nsamples = 1\nvalue = [0, 2]\nclass = 1", fillcolor="#399de5"] ;
152 -> 162 ;
163 [label="gini = 0.0\nsamples = 4\nvalue = [0, 8]\nclass = 1", fillcolor="#399de5"] ;
151 -> 163 ;
164 [label="gini = 0.0\nsamples = 16\nvalue = [0, 22]\nclass = 1", fillcolor="#399de5"] ;
150 -> 164 ;
165 [label="avg_texts_coordX <= 243.12\ngini = 0.32\nsamples = 4\nvalue = [4, 1]\nclass = 0", fillcolor="#eca06a"] ;
129 -> 165 ;
166 [label="gini = 0.0\nsamples = 3\nvalue = [4, 0]\nclass = 0", fillcolor="#e58139"] ;
165 -> 166 ;
167 [label="gini = 0.0\nsamples = 1\nvalue = [0, 1]\nclass = 1", fillcolor="#399de5"] ;
165 -> 167 ;
168 [label="isTwitter <= 0.5\ngini = 0.47\nsamples = 20\nvalue = [11, 18]\nclass = 1", fillcolor="#b2d9f5"] ;
128 -> 168 ;
169 [label="category_id <= 25.5\ngini = 0.24\nsamples = 5\nvalue = [6, 1]\nclass = 0", fillcolor="#e9965a"] ;
168 -> 169 ;
170 [label="gini = 0.0\nsamples = 1\nvalue = [0, 1]\nclass = 1", fillcolor="#399de5"] ;
169 -> 170 ;
171 [label="gini = 0.0\nsamples = 4\nvalue = [6, 0]\nclass = 0", fillcolor="#e58139"] ;
169 -> 171 ;
172 [label="comment_count/views <= 0.0\ngini = 0.35\nsamples = 15\nvalue = [5, 17]\nclass = 1", fillcolor="#73baed"] ;
168 -> 172 ;
173 [label="desc_capital_letters_percent <= 0.1\ngini = 0.32\nsamples = 4\nvalue = [4, 1]\nclass = 0", fillcolor="#eca06a"] ;
172 -> 173 ;
174 [label="gini = 0.0\nsamples = 3\nvalue = [4, 0]\nclass = 0", fillcolor="#e58139"] ;
173 -> 174 ;
175 [label="gini = 0.0\nsamples = 1\nvalue = [0, 1]\nclass = 1", fillcolor="#399de5"] ;
173 -> 175 ;
176 [label="Fear <= 0.5\ngini = 0.11\nsamples = 11\nvalue = [1, 16]\nclass = 1", fillcolor="#45a3e7"] ;
172 -> 176 ;
177 [label="gini = 0.0\nsamples = 10\nvalue = [0, 16]\nclass = 1", fillcolor="#399de5"] ;
176 -> 177 ;
178 [label="gini = 0.0\nsamples = 1\nvalue = [1, 0]\nclass = 0", fillcolor="#e58139"] ;
176 -> 178 ;
179 [label="desc_punctuation <= 13.5\ngini = 0.48\nsamples = 16\nvalue = [16, 11]\nclass = 0", fillcolor="#f7d8c1"] ;
127 -> 179 ;
180 [label="mean_h <= 0.09\ngini = 0.36\nsamples = 13\nvalue = [16, 5]\nclass = 0", fillcolor="#eda877"] ;
179 -> 180 ;
181 [label="gini = 0.0\nsamples = 2\nvalue = [0, 3]\nclass = 1", fillcolor="#399de5"] ;
180 -> 181 ;
182 [label="likes <= 803.5\ngini = 0.2\nsamples = 11\nvalue = [16, 2]\nclass = 0", fillcolor="#e89152"] ;
180 -> 182 ;
183 [label="gini = 0.0\nsamples = 1\nvalue = [0, 1]\nclass = 1", fillcolor="#399de5"] ;
182 -> 183 ;
184 [label="title_small_letters_percent <= 0.69\ngini = 0.11\nsamples = 10\nvalue = [16, 1]\nclass = 0", fillcolor="#e78945"] ;
182 -> 184 ;
185 [label="views <= 196404.0\ngini = 0.38\nsamples = 2\nvalue = [3, 1]\nclass = 0", fillcolor="#eeab7b"] ;
184 -> 185 ;
186 [label="gini = 0.0\nsamples = 1\nvalue = [3, 0]\nclass = 0", fillcolor="#e58139"] ;
185 -> 186 ;
187 [label="gini = 0.0\nsamples = 1\nvalue = [0, 1]\nclass = 1", fillcolor="#399de5"] ;
185 -> 187 ;
188 [label="gini = 0.0\nsamples = 8\nvalue = [13, 0]\nclass = 0", fillcolor="#e58139"] ;
184 -> 188 ;
189 [label="gini = 0.0\nsamples = 3\nvalue = [0, 6]\nclass = 1", fillcolor="#399de5"] ;
179 -> 189 ;
190 [label="std_v <= 0.24\ngini = 0.07\nsamples = 37\nvalue = [2, 54]\nclass = 1", fillcolor="#40a1e6"] ;
126 -> 190 ;
191 [label="likes <= 892.0\ngini = 0.35\nsamples = 5\nvalue = [2, 7]\nclass = 1", fillcolor="#72b9ec"] ;
190 -> 191 ;
192 [label="gini = 0.0\nsamples = 1\nvalue = [2, 0]\nclass = 0", fillcolor="#e58139"] ;
191 -> 192 ;
193 [label="gini = 0.0\nsamples = 4\nvalue = [0, 7]\nclass = 1", fillcolor="#399de5"] ;
191 -> 193 ;
194 [label="gini = 0.0\nsamples = 32\nvalue = [0, 47]\nclass = 1", fillcolor="#399de5"] ;
190 -> 194 ;
195 [label="desc_n_of_words <= 134.5\ngini = 0.5\nsamples = 280\nvalue = [233, 202]\nclass = 0", fillcolor="#fceee5"] ;
5 -> 195 ;
196 [label="desc_punctuation <= 4.5\ngini = 0.49\nsamples = 224\nvalue = [198, 147]\nclass = 0", fillcolor="#f8dfcc"] ;
195 -> 196 ;
197 [label="n_of_tags <= 8.5\ngini = 0.45\nsamples = 37\nvalue = [23, 43]\nclass = 1", fillcolor="#a3d1f3"] ;
196 -> 197 ;
198 [label="title_small_letters_percent <= 0.86\ngini = 0.19\nsamples = 16\nvalue = [3, 26]\nclass = 1", fillcolor="#50a8e8"] ;
197 -> 198 ;
199 [label="std_h <= 0.29\ngini = 0.13\nsamples = 15\nvalue = [2, 26]\nclass = 1", fillcolor="#48a5e7"] ;
198 -> 199 ;
200 [label="gini = 0.0\nsamples = 12\nvalue = [0, 23]\nclass = 1", fillcolor="#399de5"] ;
199 -> 200 ;
201 [label="desc_punctuation <= 2.5\ngini = 0.48\nsamples = 3\nvalue = [2, 3]\nclass = 1", fillcolor="#bddef6"] ;
199 -> 201 ;
202 [label="gini = 0.0\nsamples = 1\nvalue = [2, 0]\nclass = 0", fillcolor="#e58139"] ;
201 -> 202 ;
203 [label="gini = 0.0\nsamples = 2\nvalue = [0, 3]\nclass = 1", fillcolor="#399de5"] ;
201 -> 203 ;
204 [label="gini = 0.0\nsamples = 1\nvalue = [1, 0]\nclass = 0", fillcolor="#e58139"] ;
198 -> 204 ;
205 [label="desc_capital_letters <= 0.5\ngini = 0.5\nsamples = 21\nvalue = [20, 17]\nclass = 0", fillcolor="#fbece1"] ;
197 -> 205 ;
206 [label="desc_punctuation <= 1.0\ngini = 0.32\nsamples = 5\nvalue = [2, 8]\nclass = 1", fillcolor="#6ab6ec"] ;
205 -> 206 ;
207 [label="gini = 0.0\nsamples = 4\nvalue = [0, 8]\nclass = 1", fillcolor="#399de5"] ;
206 -> 207 ;
208 [label="gini = 0.0\nsamples = 1\nvalue = [2, 0]\nclass = 0", fillcolor="#e58139"] ;
206 -> 208 ;
209 [label="mean_v <= 0.49\ngini = 0.44\nsamples = 16\nvalue = [18, 9]\nclass = 0", fillcolor="#f2c09c"] ;
205 -> 209 ;
210 [label="desc_capital_letters <= 9.5\ngini = 0.19\nsamples = 11\nvalue = [17, 2]\nclass = 0", fillcolor="#e89050"] ;
209 -> 210 ;
211 [label="likes <= 44194.5\ngini = 0.1\nsamples = 10\nvalue = [17, 1]\nclass = 0", fillcolor="#e78845"] ;
210 -> 211 ;
212 [label="faces <= 0.5\ngini = 0.38\nsamples = 3\nvalue = [3, 1]\nclass = 0", fillcolor="#eeab7b"] ;
211 -> 212 ;
213 [label="gini = 0.0\nsamples = 1\nvalue = [0, 1]\nclass = 1", fillcolor="#399de5"] ;
212 -> 213 ;
214 [label="gini = 0.0\nsamples = 2\nvalue = [3, 0]\nclass = 0", fillcolor="#e58139"] ;
212 -> 214 ;
215 [label="gini = 0.0\nsamples = 7\nvalue = [14, 0]\nclass = 0", fillcolor="#e58139"] ;
211 -> 215 ;
216 [label="gini = 0.0\nsamples = 1\nvalue = [0, 1]\nclass = 1", fillcolor="#399de5"] ;
210 -> 216 ;
217 [label="likes/views <= 0.03\ngini = 0.22\nsamples = 5\nvalue = [1, 7]\nclass = 1", fillcolor="#55abe9"] ;
209 -> 217 ;
218 [label="gini = 0.0\nsamples = 1\nvalue = [1, 0]\nclass = 0", fillcolor="#e58139"] ;
217 -> 218 ;
219 [label="gini = 0.0\nsamples = 4\nvalue = [0, 7]\nclass = 1", fillcolor="#399de5"] ;
217 -> 219 ;
220 [label="comment_count <= 11541.0\ngini = 0.47\nsamples = 187\nvalue = [175, 104]\nclass = 0", fillcolor="#f4ccaf"] ;
196 -> 220 ;
221 [label="desc_n_of_urls <= 5.5\ngini = 0.44\nsamples = 166\nvalue = [167, 81]\nclass = 0", fillcolor="#f2be99"] ;
220 -> 221 ;
222 [label="dislikes/likes <= 0.0\ngini = 0.28\nsamples = 78\nvalue = [104, 21]\nclass = 0", fillcolor="#ea9a61"] ;
221 -> 222 ;
223 [label="gini = 0.0\nsamples = 1\nvalue = [0, 3]\nclass = 1", fillcolor="#399de5"] ;
222 -> 223 ;
224 [label="likes/views <= 0.04\ngini = 0.25\nsamples = 77\nvalue = [104, 18]\nclass = 0", fillcolor="#ea975b"] ;
222 -> 224 ;
225 [label="desc_small_letters <= 488.0\ngini = 0.11\nsamples = 55\nvalue = [84, 5]\nclass = 0", fillcolor="#e78845"] ;
224 -> 225 ;
226 [label="desc_n_of_urls <= 4.5\ngini = 0.07\nsamples = 53\nvalue = [82, 3]\nclass = 0", fillcolor="#e68640"] ;
225 -> 226 ;
227 [label="people <= 14.5\ngini = 0.03\nsamples = 47\nvalue = [76, 1]\nclass = 0", fillcolor="#e5833c"] ;
226 -> 227 ;
228 [label="gini = 0.0\nsamples = 43\nvalue = [71, 0]\nclass = 0", fillcolor="#e58139"] ;
227 -> 228 ;
229 [label="dislikes <= 601.0\ngini = 0.28\nsamples = 4\nvalue = [5, 1]\nclass = 0", fillcolor="#ea9a61"] ;
227 -> 229 ;
230 [label="gini = 0.0\nsamples = 1\nvalue = [0, 1]\nclass = 1", fillcolor="#399de5"] ;
229 -> 230 ;
231 [label="gini = 0.0\nsamples = 3\nvalue = [5, 0]\nclass = 0", fillcolor="#e58139"] ;
229 -> 231 ;
232 [label="desc_small_letters_percent <= 0.7\ngini = 0.38\nsamples = 6\nvalue = [6, 2]\nclass = 0", fillcolor="#eeab7b"] ;
226 -> 232 ;
233 [label="Happy <= 1.5\ngini = 0.44\nsamples = 3\nvalue = [1, 2]\nclass = 1", fillcolor="#9ccef2"] ;
232 -> 233 ;
234 [label="gini = 0.0\nsamples = 2\nvalue = [0, 2]\nclass = 1", fillcolor="#399de5"] ;
233 -> 234 ;
235 [label="gini = 0.0\nsamples = 1\nvalue = [1, 0]\nclass = 0", fillcolor="#e58139"] ;
233 -> 235 ;
236 [label="gini = 0.0\nsamples = 3\nvalue = [5, 0]\nclass = 0", fillcolor="#e58139"] ;
232 -> 236 ;
237 [label="dislikes/likes <= 0.02\ngini = 0.5\nsamples = 2\nvalue = [2, 2]\nclass = 0", fillcolor="#ffffff"] ;
225 -> 237 ;
238 [label="gini = 0.0\nsamples = 1\nvalue = [2, 0]\nclass = 0", fillcolor="#e58139"] ;
237 -> 238 ;
239 [label="gini = 0.0\nsamples = 1\nvalue = [0, 2]\nclass = 1", fillcolor="#399de5"] ;
237 -> 239 ;
240 [label="dislikes/likes <= 0.01\ngini = 0.48\nsamples = 22\nvalue = [20, 13]\nclass = 0", fillcolor="#f6d3ba"] ;
224 -> 240 ;
241 [label="gini = 0.0\nsamples = 7\nvalue = [14, 0]\nclass = 0", fillcolor="#e58139"] ;
240 -> 241 ;
242 [label="desc_length <= 160.0\ngini = 0.43\nsamples = 15\nvalue = [6, 13]\nclass = 1", fillcolor="#94caf1"] ;
240 -> 242 ;
243 [label="gini = 0.0\nsamples = 3\nvalue = [4, 0]\nclass = 0", fillcolor="#e58139"] ;
242 -> 243 ;
244 [label="dislikes/likes <= 0.02\ngini = 0.23\nsamples = 12\nvalue = [2, 13]\nclass = 1", fillcolor="#57ace9"] ;
242 -> 244 ;
245 [label="gini = 0.0\nsamples = 11\nvalue = [0, 13]\nclass = 1", fillcolor="#399de5"] ;
244 -> 245 ;
246 [label="gini = 0.0\nsamples = 1\nvalue = [2, 0]\nclass = 0", fillcolor="#e58139"] ;
244 -> 246 ;
247 [label="dislikes/views <= 0.0\ngini = 0.5\nsamples = 88\nvalue = [63, 60]\nclass = 0", fillcolor="#fef9f6"] ;
221 -> 247 ;
248 [label="comment_count/views <= 0.0\ngini = 0.34\nsamples = 45\nvalue = [50, 14]\nclass = 0", fillcolor="#eca470"] ;
247 -> 248 ;
249 [label="faces <= 4.5\ngini = 0.24\nsamples = 40\nvalue = [50, 8]\nclass = 0", fillcolor="#e99559"] ;
248 -> 249 ;
250 [label="std_s <= 0.25\ngini = 0.11\nsamples = 37\nvalue = [49, 3]\nclass = 0", fillcolor="#e78945"] ;
249 -> 250 ;
251 [label="title_small_letters_percent <= 0.69\ngini = 0.32\nsamples = 8\nvalue = [8, 2]\nclass = 0", fillcolor="#eca06a"] ;
250 -> 251 ;
252 [label="gini = 0.0\nsamples = 4\nvalue = [5, 0]\nclass = 0", fillcolor="#e58139"] ;
251 -> 252 ;
253 [label="dislikes <= 711.0\ngini = 0.48\nsamples = 4\nvalue = [3, 2]\nclass = 0", fillcolor="#f6d5bd"] ;
251 -> 253 ;
254 [label="gini = 0.0\nsamples = 1\nvalue = [0, 2]\nclass = 1", fillcolor="#399de5"] ;
253 -> 254 ;
255 [label="gini = 0.0\nsamples = 3\nvalue = [3, 0]\nclass = 0", fillcolor="#e58139"] ;
253 -> 255 ;
256 [label="pub_day <= 24.5\ngini = 0.05\nsamples = 29\nvalue = [41, 1]\nclass = 0", fillcolor="#e6843e"] ;
250 -> 256 ;
257 [label="gini = 0.0\nsamples = 25\nvalue = [37, 0]\nclass = 0", fillcolor="#e58139"] ;
256 -> 257 ;
258 [label="desc_small_letters <= 637.0\ngini = 0.32\nsamples = 4\nvalue = [4, 1]\nclass = 0", fillcolor="#eca06a"] ;
256 -> 258 ;
259 [label="gini = 0.0\nsamples = 2\nvalue = [3, 0]\nclass = 0", fillcolor="#e58139"] ;
258 -> 259 ;
260 [label="views <= 1181888.0\ngini = 0.5\nsamples = 2\nvalue = [1, 1]\nclass = 0", fillcolor="#ffffff"] ;
258 -> 260 ;
261 [label="gini = 0.0\nsamples = 1\nvalue = [0, 1]\nclass = 1", fillcolor="#399de5"] ;
260 -> 261 ;
262 [label="gini = 0.0\nsamples = 1\nvalue = [1, 0]\nclass = 0", fillcolor="#e58139"] ;
260 -> 262 ;
263 [label="comment_count <= 911.0\ngini = 0.28\nsamples = 3\nvalue = [1, 5]\nclass = 1", fillcolor="#61b1ea"] ;
249 -> 263 ;
264 [label="gini = 0.0\nsamples = 1\nvalue = [1, 0]\nclass = 0", fillcolor="#e58139"] ;
263 -> 264 ;
265 [label="gini = 0.0\nsamples = 2\nvalue = [0, 5]\nclass = 1", fillcolor="#399de5"] ;
263 -> 265 ;
266 [label="gini = 0.0\nsamples = 5\nvalue = [0, 6]\nclass = 1", fillcolor="#399de5"] ;
248 -> 266 ;
267 [label="views <= 1899023.0\ngini = 0.34\nsamples = 43\nvalue = [13, 46]\nclass = 1", fillcolor="#71b9ec"] ;
247 -> 267 ;
268 [label="desc_n_of_urls <= 25.5\ngini = 0.2\nsamples = 39\nvalue = [6, 46]\nclass = 1", fillcolor="#53aae8"] ;
267 -> 268 ;
269 [label="likes <= 25576.0\ngini = 0.11\nsamples = 38\nvalue = [3, 46]\nclass = 1", fillcolor="#46a3e7"] ;
268 -> 269 ;
270 [label="gini = 0.0\nsamples = 1\nvalue = [2, 0]\nclass = 0", fillcolor="#e58139"] ;
269 -> 270 ;
271 [label="desc_length <= 1277.0\ngini = 0.04\nsamples = 37\nvalue = [1, 46]\nclass = 1", fillcolor="#3d9fe6"] ;
269 -> 271 ;
272 [label="gini = 0.0\nsamples = 35\nvalue = [0, 44]\nclass = 1", fillcolor="#399de5"] ;
271 -> 272 ;
273 [label="mean_h <= 0.44\ngini = 0.44\nsamples = 2\nvalue = [1, 2]\nclass = 1", fillcolor="#9ccef2"] ;
271 -> 273 ;
274 [label="gini = 0.0\nsamples = 1\nvalue = [0, 2]\nclass = 1", fillcolor="#399de5"] ;
273 -> 274 ;
275 [label="gini = 0.0\nsamples = 1\nvalue = [1, 0]\nclass = 0", fillcolor="#e58139"] ;
273 -> 275 ;
276 [label="gini = 0.0\nsamples = 1\nvalue = [3, 0]\nclass = 0", fillcolor="#e58139"] ;
268 -> 276 ;
277 [label="gini = 0.0\nsamples = 4\nvalue = [7, 0]\nclass = 0", fillcolor="#e58139"] ;
267 -> 277 ;
278 [label="desc_punctuation <= 54.5\ngini = 0.38\nsamples = 21\nvalue = [8, 23]\nclass = 1", fillcolor="#7ebfee"] ;
220 -> 278 ;
279 [label="likes <= 287804.5\ngini = 0.29\nsamples = 20\nvalue = [5, 23]\nclass = 1", fillcolor="#64b2eb"] ;
278 -> 279 ;
280 [label="desc_capital_letters <= 15.5\ngini = 0.15\nsamples = 17\nvalue = [2, 23]\nclass = 1", fillcolor="#4aa6e7"] ;
279 -> 280 ;
281 [label="likes/views <= 0.07\ngini = 0.44\nsamples = 3\nvalue = [2, 1]\nclass = 0", fillcolor="#f2c09c"] ;
280 -> 281 ;
282 [label="gini = 0.0\nsamples = 2\nvalue = [2, 0]\nclass = 0", fillcolor="#e58139"] ;
281 -> 282 ;
283 [label="gini = 0.0\nsamples = 1\nvalue = [0, 1]\nclass = 1", fillcolor="#399de5"] ;
281 -> 283 ;
284 [label="gini = 0.0\nsamples = 14\nvalue = [0, 22]\nclass = 1", fillcolor="#399de5"] ;
280 -> 284 ;
285 [label="gini = 0.0\nsamples = 3\nvalue = [3, 0]\nclass = 0", fillcolor="#e58139"] ;
279 -> 285 ;
286 [label="gini = 0.0\nsamples = 1\nvalue = [3, 0]\nclass = 0", fillcolor="#e58139"] ;
278 -> 286 ;
287 [label="likes/views <= 0.03\ngini = 0.48\nsamples = 56\nvalue = [35, 55]\nclass = 1", fillcolor="#b7dbf6"] ;
195 -> 287 ;
288 [label="std_v <= 0.25\ngini = 0.21\nsamples = 15\nvalue = [22, 3]\nclass = 0", fillcolor="#e99254"] ;
287 -> 288 ;
289 [label="title_n_of_words <= 5.5\ngini = 0.38\nsamples = 3\nvalue = [1, 3]\nclass = 1", fillcolor="#7bbeee"] ;
288 -> 289 ;
290 [label="gini = 0.0\nsamples = 2\nvalue = [0, 3]\nclass = 1", fillcolor="#399de5"] ;
289 -> 290 ;
291 [label="gini = 0.0\nsamples = 1\nvalue = [1, 0]\nclass = 0", fillcolor="#e58139"] ;
289 -> 291 ;
292 [label="gini = 0.0\nsamples = 12\nvalue = [21, 0]\nclass = 0", fillcolor="#e58139"] ;
288 -> 292 ;
293 [label="desc_small_letters_percent <= 0.63\ngini = 0.32\nsamples = 41\nvalue = [13, 52]\nclass = 1", fillcolor="#6ab6ec"] ;
287 -> 293 ;
294 [label="n_of_tags <= 19.5\ngini = 0.46\nsamples = 6\nvalue = [7, 4]\nclass = 0", fillcolor="#f4c9aa"] ;
293 -> 294 ;
295 [label="gini = 0.0\nsamples = 3\nvalue = [0, 4]\nclass = 1", fillcolor="#399de5"] ;
294 -> 295 ;
296 [label="gini = 0.0\nsamples = 3\nvalue = [7, 0]\nclass = 0", fillcolor="#e58139"] ;
294 -> 296 ;
297 [label="comment_count/views <= 0.0\ngini = 0.2\nsamples = 35\nvalue = [6, 48]\nclass = 1", fillcolor="#52a9e8"] ;
293 -> 297 ;
298 [label="gini = 0.0\nsamples = 3\nvalue = [4, 0]\nclass = 0", fillcolor="#e58139"] ;
297 -> 298 ;
299 [label="entropy <= 6.91\ngini = 0.08\nsamples = 32\nvalue = [2, 48]\nclass = 1", fillcolor="#41a1e6"] ;
297 -> 299 ;
300 [label="gini = 0.0\nsamples = 30\nvalue = [0, 48]\nclass = 1", fillcolor="#399de5"] ;
299 -> 300 ;
301 [label="gini = 0.0\nsamples = 2\nvalue = [2, 0]\nclass = 0", fillcolor="#e58139"] ;
299 -> 301 ;
302 [label="desc_small_letters <= 83.5\ngini = 0.43\nsamples = 488\nvalue = [254, 550]\nclass = 1", fillcolor="#94caf1"] ;
4 -> 302 ;
303 [label="entropy <= 6.63\ngini = 0.27\nsamples = 68\nvalue = [19, 97]\nclass = 1", fillcolor="#60b0ea"] ;
302 -> 303 ;
304 [label="pub_hour <= 16.5\ngini = 0.37\nsamples = 42\nvalue = [18, 55]\nclass = 1", fillcolor="#7abdee"] ;
303 -> 304 ;
305 [label="comment_count <= 21.0\ngini = 0.18\nsamples = 25\nvalue = [5, 45]\nclass = 1", fillcolor="#4fa8e8"] ;
304 -> 305 ;
306 [label="std_v <= 0.2\ngini = 0.5\nsamples = 6\nvalue = [5, 6]\nclass = 1", fillcolor="#deeffb"] ;
305 -> 306 ;
307 [label="gini = 0.0\nsamples = 2\nvalue = [5, 0]\nclass = 0", fillcolor="#e58139"] ;
306 -> 307 ;
308 [label="gini = 0.0\nsamples = 4\nvalue = [0, 6]\nclass = 1", fillcolor="#399de5"] ;
306 -> 308 ;
309 [label="gini = 0.0\nsamples = 19\nvalue = [0, 39]\nclass = 1", fillcolor="#399de5"] ;
305 -> 309 ;
310 [label="views <= 25512.5\ngini = 0.49\nsamples = 17\nvalue = [13, 10]\nclass = 0", fillcolor="#f9e2d1"] ;
304 -> 310 ;
311 [label="gini = 0.0\nsamples = 3\nvalue = [0, 5]\nclass = 1", fillcolor="#399de5"] ;
310 -> 311 ;
312 [label="title_small_letters <= 34.5\ngini = 0.4\nsamples = 14\nvalue = [13, 5]\nclass = 0", fillcolor="#efb185"] ;
310 -> 312 ;
313 [label="desc_capital_letters <= 0.5\ngini = 0.24\nsamples = 10\nvalue = [12, 2]\nclass = 0", fillcolor="#e9965a"] ;
312 -> 313 ;
314 [label="gini = 0.0\nsamples = 1\nvalue = [0, 1]\nclass = 1", fillcolor="#399de5"] ;
313 -> 314 ;
315 [label="likes/views <= 0.0\ngini = 0.14\nsamples = 9\nvalue = [12, 1]\nclass = 0", fillcolor="#e78c49"] ;
313 -> 315 ;
316 [label="gini = 0.0\nsamples = 1\nvalue = [0, 1]\nclass = 1", fillcolor="#399de5"] ;
315 -> 316 ;
317 [label="gini = 0.0\nsamples = 8\nvalue = [12, 0]\nclass = 0", fillcolor="#e58139"] ;
315 -> 317 ;
318 [label="title_n_of_words <= 10.5\ngini = 0.38\nsamples = 4\nvalue = [1, 3]\nclass = 1", fillcolor="#7bbeee"] ;
312 -> 318 ;
319 [label="gini = 0.0\nsamples = 3\nvalue = [0, 3]\nclass = 1", fillcolor="#399de5"] ;
318 -> 319 ;
320 [label="gini = 0.0\nsamples = 1\nvalue = [1, 0]\nclass = 0", fillcolor="#e58139"] ;
318 -> 320 ;
321 [label="Sad <= 1.5\ngini = 0.05\nsamples = 26\nvalue = [1, 42]\nclass = 1", fillcolor="#3e9fe6"] ;
303 -> 321 ;
322 [label="gini = 0.0\nsamples = 24\nvalue = [0, 41]\nclass = 1", fillcolor="#399de5"] ;
321 -> 322 ;
323 [label="category_id <= 23.5\ngini = 0.5\nsamples = 2\nvalue = [1, 1]\nclass = 0", fillcolor="#ffffff"] ;
321 -> 323 ;
324 [label="gini = 0.0\nsamples = 1\nvalue = [0, 1]\nclass = 1", fillcolor="#399de5"] ;
323 -> 324 ;
325 [label="gini = 0.0\nsamples = 1\nvalue = [1, 0]\nclass = 0", fillcolor="#e58139"] ;
323 -> 325 ;
326 [label="dislikes/views <= 0.0\ngini = 0.45\nsamples = 420\nvalue = [235, 453]\nclass = 1", fillcolor="#a0d0f2"] ;
302 -> 326 ;
327 [label="dislikes <= 1313.0\ngini = 0.5\nsamples = 284\nvalue = [205, 247]\nclass = 1", fillcolor="#ddeefb"] ;
326 -> 327 ;
328 [label="comment_count/views <= 0.0\ngini = 0.48\nsamples = 233\nvalue = [145, 228]\nclass = 1", fillcolor="#b7dbf6"] ;
327 -> 328 ;
329 [label="desc_small_letters_percent <= 0.67\ngini = 0.47\nsamples = 74\nvalue = [77, 45]\nclass = 0", fillcolor="#f4cbad"] ;
328 -> 329 ;
330 [label="gini = 0.0\nsamples = 13\nvalue = [19, 0]\nclass = 0", fillcolor="#e58139"] ;
329 -> 330 ;
331 [label="likes <= 103.5\ngini = 0.49\nsamples = 61\nvalue = [58, 45]\nclass = 0", fillcolor="#f9e3d3"] ;
329 -> 331 ;
332 [label="n_of_tags <= 6.0\ngini = 0.41\nsamples = 24\nvalue = [11, 27]\nclass = 1", fillcolor="#8ac5f0"] ;
331 -> 332 ;
333 [label="gini = 0.0\nsamples = 9\nvalue = [0, 15]\nclass = 1", fillcolor="#399de5"] ;
332 -> 333 ;
334 [label="desc_capital_letters <= 7.0\ngini = 0.5\nsamples = 15\nvalue = [11, 12]\nclass = 1", fillcolor="#eff7fd"] ;
332 -> 334 ;
335 [label="gini = 0.0\nsamples = 5\nvalue = [6, 0]\nclass = 0", fillcolor="#e58139"] ;
334 -> 335 ;
336 [label="desc_small_letters_percent <= 0.71\ngini = 0.42\nsamples = 10\nvalue = [5, 12]\nclass = 1", fillcolor="#8bc6f0"] ;
334 -> 336 ;
337 [label="gini = 0.0\nsamples = 2\nvalue = [4, 0]\nclass = 0", fillcolor="#e58139"] ;
336 -> 337 ;
338 [label="std_s <= 0.17\ngini = 0.14\nsamples = 8\nvalue = [1, 12]\nclass = 1", fillcolor="#49a5e7"] ;
336 -> 338 ;
339 [label="title_capital_letters_percent <= 0.05\ngini = 0.5\nsamples = 2\nvalue = [1, 1]\nclass = 0", fillcolor="#ffffff"] ;
338 -> 339 ;
340 [label="gini = 0.0\nsamples = 1\nvalue = [0, 1]\nclass = 1", fillcolor="#399de5"] ;
339 -> 340 ;
341 [label="gini = 0.0\nsamples = 1\nvalue = [1, 0]\nclass = 0", fillcolor="#e58139"] ;
339 -> 341 ;
342 [label="gini = 0.0\nsamples = 6\nvalue = [0, 11]\nclass = 1", fillcolor="#399de5"] ;
338 -> 342 ;
343 [label="mean_s <= 0.29\ngini = 0.4\nsamples = 37\nvalue = [47, 18]\nclass = 0", fillcolor="#efb185"] ;
331 -> 343 ;
344 [label="mean_v <= 0.26\ngini = 0.5\nsamples = 19\nvalue = [18, 15]\nclass = 0", fillcolor="#fbeade"] ;
343 -> 344 ;
345 [label="gini = 0.0\nsamples = 5\nvalue = [0, 10]\nclass = 1", fillcolor="#399de5"] ;
344 -> 345 ;
346 [label="desc_punctuation <= 15.5\ngini = 0.34\nsamples = 14\nvalue = [18, 5]\nclass = 0", fillcolor="#eca470"] ;
344 -> 346 ;
347 [label="gini = 0.0\nsamples = 11\nvalue = [16, 0]\nclass = 0", fillcolor="#e58139"] ;
346 -> 347 ;
348 [label="std_v <= 0.33\ngini = 0.41\nsamples = 3\nvalue = [2, 5]\nclass = 1", fillcolor="#88c4ef"] ;
346 -> 348 ;
349 [label="gini = 0.0\nsamples = 1\nvalue = [2, 0]\nclass = 0", fillcolor="#e58139"] ;
348 -> 349 ;
350 [label="gini = 0.0\nsamples = 2\nvalue = [0, 5]\nclass = 1", fillcolor="#399de5"] ;
348 -> 350 ;
351 [label="likes/views <= 0.0\ngini = 0.17\nsamples = 18\nvalue = [29, 3]\nclass = 0", fillcolor="#e88e4d"] ;
343 -> 351 ;
352 [label="gini = 0.0\nsamples = 1\nvalue = [0, 1]\nclass = 1", fillcolor="#399de5"] ;
351 -> 352 ;
353 [label="title_small_letters_percent <= 0.53\ngini = 0.12\nsamples = 17\nvalue = [29, 2]\nclass = 0", fillcolor="#e78a47"] ;
351 -> 353 ;
354 [label="gini = 0.0\nsamples = 1\nvalue = [0, 1]\nclass = 1", fillcolor="#399de5"] ;
353 -> 354 ;
355 [label="mean_h <= 0.51\ngini = 0.06\nsamples = 16\nvalue = [29, 1]\nclass = 0", fillcolor="#e68540"] ;
353 -> 355 ;
356 [label="gini = 0.0\nsamples = 15\nvalue = [29, 0]\nclass = 0", fillcolor="#e58139"] ;
355 -> 356 ;
357 [label="gini = 0.0\nsamples = 1\nvalue = [0, 1]\nclass = 1", fillcolor="#399de5"] ;
355 -> 357 ;
358 [label="desc_punctuation_percent <= 0.15\ngini = 0.4\nsamples = 159\nvalue = [68, 183]\nclass = 1", fillcolor="#83c1ef"] ;
328 -> 358 ;
359 [label="dislikes/likes <= 0.05\ngini = 0.37\nsamples = 154\nvalue = [60, 183]\nclass = 1", fillcolor="#7abdee"] ;
358 -> 359 ;
360 [label="desc_n_of_words <= 21.0\ngini = 0.09\nsamples = 34\nvalue = [3, 57]\nclass = 1", fillcolor="#43a2e6"] ;
359 -> 360 ;
361 [label="gini = 0.0\nsamples = 1\nvalue = [1, 0]\nclass = 0", fillcolor="#e58139"] ;
360 -> 361 ;
362 [label="ocr_sentiment_compound <= -0.3\ngini = 0.07\nsamples = 33\nvalue = [2, 57]\nclass = 1", fillcolor="#40a0e6"] ;
360 -> 362 ;
363 [label="desc_small_letters <= 474.0\ngini = 0.5\nsamples = 2\nvalue = [1, 1]\nclass = 0", fillcolor="#ffffff"] ;
362 -> 363 ;
364 [label="gini = 0.0\nsamples = 1\nvalue = [1, 0]\nclass = 0", fillcolor="#e58139"] ;
363 -> 364 ;
365 [label="gini = 0.0\nsamples = 1\nvalue = [0, 1]\nclass = 1", fillcolor="#399de5"] ;
363 -> 365 ;
366 [label="desc_punctuation <= 42.0\ngini = 0.03\nsamples = 31\nvalue = [1, 56]\nclass = 1", fillcolor="#3d9fe5"] ;
362 -> 366 ;
367 [label="gini = 0.0\nsamples = 27\nvalue = [0, 50]\nclass = 1", fillcolor="#399de5"] ;
366 -> 367 ;
368 [label="likes <= 11741.5\ngini = 0.24\nsamples = 4\nvalue = [1, 6]\nclass = 1", fillcolor="#5aade9"] ;
366 -> 368 ;
369 [label="gini = 0.0\nsamples = 1\nvalue = [1, 0]\nclass = 0", fillcolor="#e58139"] ;
368 -> 369 ;
370 [label="gini = 0.0\nsamples = 3\nvalue = [0, 6]\nclass = 1", fillcolor="#399de5"] ;
368 -> 370 ;
371 [label="desc_punctuation <= 49.0\ngini = 0.43\nsamples = 120\nvalue = [57, 126]\nclass = 1", fillcolor="#93c9f1"] ;
359 -> 371 ;
372 [label="mean_v <= 0.66\ngini = 0.38\nsamples = 106\nvalue = [42, 122]\nclass = 1", fillcolor="#7dbfee"] ;
371 -> 372 ;
373 [label="avg_texts_coordX <= 232.0\ngini = 0.37\nsamples = 105\nvalue = [40, 122]\nclass = 1", fillcolor="#7abdee"] ;
372 -> 373 ;
374 [label="n_of_tags <= 2.5\ngini = 0.42\nsamples = 83\nvalue = [38, 90]\nclass = 1", fillcolor="#8dc6f0"] ;
373 -> 374 ;
375 [label="isTwitter <= 0.5\ngini = 0.28\nsamples = 5\nvalue = [5, 1]\nclass = 0", fillcolor="#ea9a61"] ;
374 -> 375 ;
376 [label="gini = 0.0\nsamples = 4\nvalue = [5, 0]\nclass = 0", fillcolor="#e58139"] ;
375 -> 376 ;
377 [label="gini = 0.0\nsamples = 1\nvalue = [0, 1]\nclass = 1", fillcolor="#399de5"] ;
375 -> 377 ;
378 [label="title_length <= 19.0\ngini = 0.39\nsamples = 78\nvalue = [33, 89]\nclass = 1", fillcolor="#82c1ef"] ;
374 -> 378 ;
379 [label="gini = 0.0\nsamples = 4\nvalue = [5, 0]\nclass = 0", fillcolor="#e58139"] ;
378 -> 379 ;
380 [label="comment_count <= 1.5\ngini = 0.36\nsamples = 74\nvalue = [28, 89]\nclass = 1", fillcolor="#77bced"] ;
378 -> 380 ;
381 [label="gini = 0.0\nsamples = 1\nvalue = [3, 0]\nclass = 0", fillcolor="#e58139"] ;
380 -> 381 ;
382 [label="std_h <= 0.41\ngini = 0.34\nsamples = 73\nvalue = [25, 89]\nclass = 1", fillcolor="#71b9ec"] ;
380 -> 382 ;
383 [label="pub_day <= 16.5\ngini = 0.32\nsamples = 71\nvalue = [22, 89]\nclass = 1", fillcolor="#6ab5eb"] ;
382 -> 383 ;
384 [label="std_h <= 0.06\ngini = 0.18\nsamples = 34\nvalue = [6, 54]\nclass = 1", fillcolor="#4fa8e8"] ;
383 -> 384 ;
385 [label="gini = 0.0\nsamples = 1\nvalue = [1, 0]\nclass = 0", fillcolor="#e58139"] ;
384 -> 385 ;
386 [label="desc_small_letters <= 143.5\ngini = 0.16\nsamples = 33\nvalue = [5, 54]\nclass = 1", fillcolor="#4ba6e7"] ;
384 -> 386 ;
387 [label="avg_texts_coordY <= 180.57\ngini = 0.43\nsamples = 9\nvalue = [5, 11]\nclass = 1", fillcolor="#93caf1"] ;
386 -> 387 ;
388 [label="Neutral <= 0.5\ngini = 0.32\nsamples = 4\nvalue = [4, 1]\nclass = 0", fillcolor="#eca06a"] ;
387 -> 388 ;
389 [label="gini = 0.0\nsamples = 3\nvalue = [4, 0]\nclass = 0", fillcolor="#e58139"] ;
388 -> 389 ;
390 [label="gini = 0.0\nsamples = 1\nvalue = [0, 1]\nclass = 1", fillcolor="#399de5"] ;
388 -> 390 ;
391 [label="comment_count/views <= 0.0\ngini = 0.17\nsamples = 5\nvalue = [1, 10]\nclass = 1", fillcolor="#4da7e8"] ;
387 -> 391 ;
392 [label="gini = 0.0\nsamples = 1\nvalue = [1, 0]\nclass = 0", fillcolor="#e58139"] ;
391 -> 392 ;
393 [label="gini = 0.0\nsamples = 4\nvalue = [0, 10]\nclass = 1", fillcolor="#399de5"] ;
391 -> 393 ;
394 [label="gini = 0.0\nsamples = 24\nvalue = [0, 43]\nclass = 1", fillcolor="#399de5"] ;
386 -> 394 ;
395 [label="comment_count <= 707.0\ngini = 0.43\nsamples = 37\nvalue = [16, 35]\nclass = 1", fillcolor="#94caf1"] ;
383 -> 395 ;
396 [label="Neutral <= 0.5\ngini = 0.22\nsamples = 23\nvalue = [4, 28]\nclass = 1", fillcolor="#55abe9"] ;
395 -> 396 ;
397 [label="isFacebook <= 0.5\ngini = 0.07\nsamples = 18\nvalue = [1, 26]\nclass = 1", fillcolor="#41a1e6"] ;
396 -> 397 ;
398 [label="gini = 0.0\nsamples = 14\nvalue = [0, 21]\nclass = 1", fillcolor="#399de5"] ;
397 -> 398 ;
399 [label="views <= 12807.0\ngini = 0.28\nsamples = 4\nvalue = [1, 5]\nclass = 1", fillcolor="#61b1ea"] ;
397 -> 399 ;
400 [label="gini = 0.0\nsamples = 1\nvalue = [1, 0]\nclass = 0", fillcolor="#e58139"] ;
399 -> 400 ;
401 [label="gini = 0.0\nsamples = 3\nvalue = [0, 5]\nclass = 1", fillcolor="#399de5"] ;
399 -> 401 ;
402 [label="dislikes/views <= 0.0\ngini = 0.48\nsamples = 5\nvalue = [3, 2]\nclass = 0", fillcolor="#f6d5bd"] ;
396 -> 402 ;
403 [label="gini = 0.0\nsamples = 3\nvalue = [3, 0]\nclass = 0", fillcolor="#e58139"] ;
402 -> 403 ;
404 [label="gini = 0.0\nsamples = 2\nvalue = [0, 2]\nclass = 1", fillcolor="#399de5"] ;
402 -> 404 ;
405 [label="people <= 4.5\ngini = 0.47\nsamples = 14\nvalue = [12, 7]\nclass = 0", fillcolor="#f4caac"] ;
395 -> 405 ;
406 [label="title_small_letters_percent <= 0.79\ngini = 0.38\nsamples = 11\nvalue = [12, 4]\nclass = 0", fillcolor="#eeab7b"] ;
405 -> 406 ;
407 [label="desc_capital_letters_percent <= 0.03\ngini = 0.24\nsamples = 9\nvalue = [12, 2]\nclass = 0", fillcolor="#e9965a"] ;
406 -> 407 ;
408 [label="title_small_letters_percent <= 0.78\ngini = 0.44\nsamples = 3\nvalue = [1, 2]\nclass = 1", fillcolor="#9ccef2"] ;
407 -> 408 ;
409 [label="gini = 0.0\nsamples = 2\nvalue = [0, 2]\nclass = 1", fillcolor="#399de5"] ;
408 -> 409 ;
410 [label="gini = 0.0\nsamples = 1\nvalue = [1, 0]\nclass = 0", fillcolor="#e58139"] ;
408 -> 410 ;
411 [label="gini = 0.0\nsamples = 6\nvalue = [11, 0]\nclass = 0", fillcolor="#e58139"] ;
407 -> 411 ;
412 [label="gini = 0.0\nsamples = 2\nvalue = [0, 2]\nclass = 1", fillcolor="#399de5"] ;
406 -> 412 ;
413 [label="gini = 0.0\nsamples = 3\nvalue = [0, 3]\nclass = 1", fillcolor="#399de5"] ;
405 -> 413 ;
414 [label="gini = 0.0\nsamples = 2\nvalue = [3, 0]\nclass = 0", fillcolor="#e58139"] ;
382 -> 414 ;
415 [label="std_v <= 0.38\ngini = 0.11\nsamples = 22\nvalue = [2, 32]\nclass = 1", fillcolor="#45a3e7"] ;
373 -> 415 ;
416 [label="gini = 0.0\nsamples = 16\nvalue = [0, 25]\nclass = 1", fillcolor="#399de5"] ;
415 -> 416 ;
417 [label="comment_count <= 1166.0\ngini = 0.35\nsamples = 6\nvalue = [2, 7]\nclass = 1", fillcolor="#72b9ec"] ;
415 -> 417 ;
418 [label="gini = 0.0\nsamples = 5\nvalue = [0, 7]\nclass = 1", fillcolor="#399de5"] ;
417 -> 418 ;
419 [label="gini = 0.0\nsamples = 1\nvalue = [2, 0]\nclass = 0", fillcolor="#e58139"] ;
417 -> 419 ;
420 [label="gini = 0.0\nsamples = 1\nvalue = [2, 0]\nclass = 0", fillcolor="#e58139"] ;
372 -> 420 ;
421 [label="people <= 6.0\ngini = 0.33\nsamples = 14\nvalue = [15, 4]\nclass = 0", fillcolor="#eca36e"] ;
371 -> 421 ;
422 [label="gini = 0.0\nsamples = 11\nvalue = [15, 0]\nclass = 0", fillcolor="#e58139"] ;
421 -> 422 ;
423 [label="gini = 0.0\nsamples = 3\nvalue = [0, 4]\nclass = 1", fillcolor="#399de5"] ;
421 -> 423 ;
424 [label="gini = 0.0\nsamples = 5\nvalue = [8, 0]\nclass = 0", fillcolor="#e58139"] ;
358 -> 424 ;
425 [label="pub_day <= 3.5\ngini = 0.37\nsamples = 51\nvalue = [60, 19]\nclass = 0", fillcolor="#eda978"] ;
327 -> 425 ;
426 [label="std_s <= 0.39\ngini = 0.32\nsamples = 7\nvalue = [2, 8]\nclass = 1", fillcolor="#6ab6ec"] ;
425 -> 426 ;
427 [label="std_v <= 0.25\ngini = 0.2\nsamples = 6\nvalue = [1, 8]\nclass = 1", fillcolor="#52a9e8"] ;
426 -> 427 ;
428 [label="gini = 0.0\nsamples = 1\nvalue = [1, 0]\nclass = 0", fillcolor="#e58139"] ;
427 -> 428 ;
429 [label="gini = 0.0\nsamples = 5\nvalue = [0, 8]\nclass = 1", fillcolor="#399de5"] ;
427 -> 429 ;
430 [label="gini = 0.0\nsamples = 1\nvalue = [1, 0]\nclass = 0", fillcolor="#e58139"] ;
426 -> 430 ;
431 [label="desc_n_of_urls <= 24.5\ngini = 0.27\nsamples = 44\nvalue = [58, 11]\nclass = 0", fillcolor="#ea995f"] ;
425 -> 431 ;
432 [label="mean_s <= 0.1\ngini = 0.21\nsamples = 42\nvalue = [58, 8]\nclass = 0", fillcolor="#e99254"] ;
431 -> 432 ;
433 [label="title_small_letters_percent <= 0.73\ngini = 0.44\nsamples = 2\nvalue = [1, 2]\nclass = 1", fillcolor="#9ccef2"] ;
432 -> 433 ;
434 [label="gini = 0.0\nsamples = 1\nvalue = [1, 0]\nclass = 0", fillcolor="#e58139"] ;
433 -> 434 ;
435 [label="gini = 0.0\nsamples = 1\nvalue = [0, 2]\nclass = 1", fillcolor="#399de5"] ;
433 -> 435 ;
436 [label="desc_capital_letters <= 31.5\ngini = 0.17\nsamples = 40\nvalue = [57, 6]\nclass = 0", fillcolor="#e88e4e"] ;
432 -> 436 ;
437 [label="category_id <= 17.0\ngini = 0.4\nsamples = 15\nvalue = [16, 6]\nclass = 0", fillcolor="#efb083"] ;
436 -> 437 ;
438 [label="gini = 0.0\nsamples = 1\nvalue = [0, 3]\nclass = 1", fillcolor="#399de5"] ;
437 -> 438 ;
439 [label="desc_capital_letters <= 15.0\ngini = 0.27\nsamples = 14\nvalue = [16, 3]\nclass = 0", fillcolor="#ea995e"] ;
437 -> 439 ;
440 [label="gini = 0.0\nsamples = 9\nvalue = [14, 0]\nclass = 0", fillcolor="#e58139"] ;
439 -> 440 ;
441 [label="n_of_tags <= 11.0\ngini = 0.48\nsamples = 5\nvalue = [2, 3]\nclass = 1", fillcolor="#bddef6"] ;
439 -> 441 ;
442 [label="gini = 0.0\nsamples = 3\nvalue = [0, 3]\nclass = 1", fillcolor="#399de5"] ;
441 -> 442 ;
443 [label="gini = 0.0\nsamples = 2\nvalue = [2, 0]\nclass = 0", fillcolor="#e58139"] ;
441 -> 443 ;
444 [label="gini = 0.0\nsamples = 25\nvalue = [41, 0]\nclass = 0", fillcolor="#e58139"] ;
436 -> 444 ;
445 [label="gini = 0.0\nsamples = 2\nvalue = [0, 3]\nclass = 1", fillcolor="#399de5"] ;
431 -> 445 ;
446 [label="pub_hour <= 7.5\ngini = 0.22\nsamples = 136\nvalue = [30, 206]\nclass = 1", fillcolor="#56abe9"] ;
326 -> 446 ;
447 [label="ocr_sentiment_compound <= 0.35\ngini = 0.46\nsamples = 30\nvalue = [17, 30]\nclass = 1", fillcolor="#a9d5f4"] ;
446 -> 447 ;
448 [label="avg_texts_coordY <= 270.08\ngini = 0.41\nsamples = 27\nvalue = [12, 30]\nclass = 1", fillcolor="#88c4ef"] ;
447 -> 448 ;
449 [label="mean_s <= 0.4\ngini = 0.36\nsamples = 25\nvalue = [9, 30]\nclass = 1", fillcolor="#74baed"] ;
448 -> 449 ;
450 [label="title_small_letters <= 37.0\ngini = 0.22\nsamples = 20\nvalue = [4, 27]\nclass = 1", fillcolor="#56ace9"] ;
449 -> 450 ;
451 [label="desc_n_of_urls <= 5.5\ngini = 0.13\nsamples = 18\nvalue = [2, 26]\nclass = 1", fillcolor="#48a5e7"] ;
450 -> 451 ;
452 [label="gini = 0.0\nsamples = 14\nvalue = [0, 22]\nclass = 1", fillcolor="#399de5"] ;
451 -> 452 ;
453 [label="std_h <= 0.36\ngini = 0.44\nsamples = 4\nvalue = [2, 4]\nclass = 1", fillcolor="#9ccef2"] ;
451 -> 453 ;
454 [label="gini = 0.0\nsamples = 3\nvalue = [0, 4]\nclass = 1", fillcolor="#399de5"] ;
453 -> 454 ;
455 [label="gini = 0.0\nsamples = 1\nvalue = [2, 0]\nclass = 0", fillcolor="#e58139"] ;
453 -> 455 ;
456 [label="mean_v <= 0.29\ngini = 0.44\nsamples = 2\nvalue = [2, 1]\nclass = 0", fillcolor="#f2c09c"] ;
450 -> 456 ;
457 [label="gini = 0.0\nsamples = 1\nvalue = [0, 1]\nclass = 1", fillcolor="#399de5"] ;
456 -> 457 ;
458 [label="gini = 0.0\nsamples = 1\nvalue = [2, 0]\nclass = 0", fillcolor="#e58139"] ;
456 -> 458 ;
459 [label="desc_n_of_words <= 44.0\ngini = 0.47\nsamples = 5\nvalue = [5, 3]\nclass = 0", fillcolor="#f5cdb0"] ;
449 -> 459 ;
460 [label="gini = 0.0\nsamples = 2\nvalue = [0, 3]\nclass = 1", fillcolor="#399de5"] ;
459 -> 460 ;
461 [label="gini = 0.0\nsamples = 3\nvalue = [5, 0]\nclass = 0", fillcolor="#e58139"] ;
459 -> 461 ;
462 [label="gini = 0.0\nsamples = 2\nvalue = [3, 0]\nclass = 0", fillcolor="#e58139"] ;
448 -> 462 ;
463 [label="gini = 0.0\nsamples = 3\nvalue = [5, 0]\nclass = 0", fillcolor="#e58139"] ;
447 -> 463 ;
464 [label="comment_count/views <= 0.01\ngini = 0.13\nsamples = 106\nvalue = [13, 176]\nclass = 1", fillcolor="#48a4e7"] ;
446 -> 464 ;
465 [label="entropy <= 6.7\ngini = 0.2\nsamples = 65\nvalue = [13, 102]\nclass = 1", fillcolor="#52a9e8"] ;
464 -> 465 ;
466 [label="title_length <= 71.0\ngini = 0.08\nsamples = 49\nvalue = [4, 86]\nclass = 1", fillcolor="#42a2e6"] ;
465 -> 466 ;
467 [label="dislikes/views <= 0.01\ngini = 0.07\nsamples = 47\nvalue = [3, 85]\nclass = 1", fillcolor="#40a0e6"] ;
466 -> 467 ;
468 [label="avg_texts_coordX <= 383.12\ngini = 0.02\nsamples = 42\nvalue = [1, 79]\nclass = 1", fillcolor="#3c9ee5"] ;
467 -> 468 ;
469 [label="gini = 0.0\nsamples = 41\nvalue = [0, 79]\nclass = 1", fillcolor="#399de5"] ;
468 -> 469 ;
470 [label="gini = 0.0\nsamples = 1\nvalue = [1, 0]\nclass = 0", fillcolor="#e58139"] ;
468 -> 470 ;
471 [label="pub_day_of_the_week <= 2.0\ngini = 0.38\nsamples = 5\nvalue = [2, 6]\nclass = 1", fillcolor="#7bbeee"] ;
467 -> 471 ;
472 [label="gini = 0.0\nsamples = 1\nvalue = [2, 0]\nclass = 0", fillcolor="#e58139"] ;
471 -> 472 ;
473 [label="gini = 0.0\nsamples = 4\nvalue = [0, 6]\nclass = 1", fillcolor="#399de5"] ;
471 -> 473 ;
474 [label="views <= 7672.5\ngini = 0.5\nsamples = 2\nvalue = [1, 1]\nclass = 0", fillcolor="#ffffff"] ;
466 -> 474 ;
475 [label="gini = 0.0\nsamples = 1\nvalue = [0, 1]\nclass = 1", fillcolor="#399de5"] ;
474 -> 475 ;
476 [label="gini = 0.0\nsamples = 1\nvalue = [1, 0]\nclass = 0", fillcolor="#e58139"] ;
474 -> 476 ;
477 [label="dislikes/likes <= 0.11\ngini = 0.46\nsamples = 16\nvalue = [9, 16]\nclass = 1", fillcolor="#a8d4f4"] ;
465 -> 477 ;
478 [label="gini = 0.0\nsamples = 7\nvalue = [0, 12]\nclass = 1", fillcolor="#399de5"] ;
477 -> 478 ;
479 [label="dislikes/likes <= 0.74\ngini = 0.43\nsamples = 9\nvalue = [9, 4]\nclass = 0", fillcolor="#f1b991"] ;
477 -> 479 ;
480 [label="n_of_tags <= 12.5\ngini = 0.18\nsamples = 7\nvalue = [9, 1]\nclass = 0", fillcolor="#e88f4f"] ;
479 -> 480 ;
481 [label="faces <= 1.0\ngini = 0.5\nsamples = 2\nvalue = [1, 1]\nclass = 0", fillcolor="#ffffff"] ;
480 -> 481 ;
482 [label="gini = 0.0\nsamples = 1\nvalue = [0, 1]\nclass = 1", fillcolor="#399de5"] ;
481 -> 482 ;
483 [label="gini = 0.0\nsamples = 1\nvalue = [1, 0]\nclass = 0", fillcolor="#e58139"] ;
481 -> 483 ;
484 [label="gini = 0.0\nsamples = 5\nvalue = [8, 0]\nclass = 0", fillcolor="#e58139"] ;
480 -> 484 ;
485 [label="gini = 0.0\nsamples = 2\nvalue = [0, 3]\nclass = 1", fillcolor="#399de5"] ;
479 -> 485 ;
486 [label="gini = 0.0\nsamples = 41\nvalue = [0, 74]\nclass = 1", fillcolor="#399de5"] ;
464 -> 486 ;
487 [label="n_of_tags <= 0.5\ngini = 0.5\nsamples = 2968\nvalue = [2364, 2311]\nclass = 0", fillcolor="#fefcfb"] ;
1 -> 487 ;
488 [label="gini = 0.0\nsamples = 89\nvalue = [139, 0]\nclass = 0", fillcolor="#e58139"] ;
487 -> 488 ;
489 [label="likes/views <= 0.04\ngini = 0.5\nsamples = 2879\nvalue = [2225, 2311]\nclass = 1", fillcolor="#f8fbfe"] ;
487 -> 489 ;
490 [label="title_small_letters <= 40.5\ngini = 0.49\nsamples = 2288\nvalue = [2030, 1575]\nclass = 0", fillcolor="#f9e3d3"] ;
489 -> 490 ;
491 [label="dislikes/views <= 0.0\ngini = 0.48\nsamples = 1404\nvalue = [1313, 888]\nclass = 0", fillcolor="#f7d6bf"] ;
490 -> 491 ;
492 [label="dislikes <= 423.5\ngini = 0.44\nsamples = 1095\nvalue = [1158, 573]\nclass = 0", fillcolor="#f2bf9b"] ;
491 -> 492 ;
493 [label="desc_small_letters <= 168.0\ngini = 0.49\nsamples = 662\nvalue = [606, 453]\nclass = 0", fillcolor="#f8dfcd"] ;
492 -> 493 ;
494 [label="dislikes/likes <= 0.17\ngini = 0.41\nsamples = 169\nvalue = [194, 77]\nclass = 0", fillcolor="#efb388"] ;
493 -> 494 ;
495 [label="likes/views <= 0.0\ngini = 0.37\nsamples = 158\nvalue = [194, 62]\nclass = 0", fillcolor="#eda978"] ;
494 -> 495 ;
496 [label="category_id <= 9.5\ngini = 0.36\nsamples = 8\nvalue = [3, 10]\nclass = 1", fillcolor="#74baed"] ;
495 -> 496 ;
497 [label="gini = 0.0\nsamples = 2\nvalue = [3, 0]\nclass = 0", fillcolor="#e58139"] ;
496 -> 497 ;
498 [label="gini = 0.0\nsamples = 6\nvalue = [0, 10]\nclass = 1", fillcolor="#399de5"] ;
496 -> 498 ;
499 [label="desc_capital_letters <= 10.5\ngini = 0.34\nsamples = 150\nvalue = [191, 52]\nclass = 0", fillcolor="#eca36f"] ;
495 -> 499 ;
500 [label="desc_capital_letters_percent <= 0.08\ngini = 0.42\nsamples = 76\nvalue = [88, 38]\nclass = 0", fillcolor="#f0b78e"] ;
499 -> 500 ;
501 [label="dislikes <= 183.0\ngini = 0.38\nsamples = 69\nvalue = [86, 29]\nclass = 0", fillcolor="#eeab7c"] ;
500 -> 501 ;
502 [label="dislikes/views <= 0.0\ngini = 0.25\nsamples = 51\nvalue = [76, 13]\nclass = 0", fillcolor="#e9975b"] ;
501 -> 502 ;
503 [label="title_small_letters <= 36.5\ngini = 0.05\nsamples = 19\nvalue = [36, 1]\nclass = 0", fillcolor="#e6843e"] ;
502 -> 503 ;
504 [label="gini = 0.0\nsamples = 17\nvalue = [33, 0]\nclass = 0", fillcolor="#e58139"] ;
503 -> 504 ;
505 [label="std_v <= 0.33\ngini = 0.38\nsamples = 2\nvalue = [3, 1]\nclass = 0", fillcolor="#eeab7b"] ;
503 -> 505 ;
506 [label="gini = 0.0\nsamples = 1\nvalue = [0, 1]\nclass = 1", fillcolor="#399de5"] ;
505 -> 506 ;
507 [label="gini = 0.0\nsamples = 1\nvalue = [3, 0]\nclass = 0", fillcolor="#e58139"] ;
505 -> 507 ;
508 [label="desc_capital_letters <= 4.5\ngini = 0.36\nsamples = 32\nvalue = [40, 12]\nclass = 0", fillcolor="#eda774"] ;
502 -> 508 ;
509 [label="dislikes/likes <= 0.03\ngini = 0.5\nsamples = 12\nvalue = [8, 9]\nclass = 1", fillcolor="#e9f4fc"] ;
508 -> 509 ;
510 [label="gini = 0.0\nsamples = 3\nvalue = [0, 6]\nclass = 1", fillcolor="#399de5"] ;
509 -> 510 ;
511 [label="comment_count/views <= 0.0\ngini = 0.4\nsamples = 9\nvalue = [8, 3]\nclass = 0", fillcolor="#efb083"] ;
509 -> 511 ;
512 [label="gini = 0.0\nsamples = 2\nvalue = [0, 2]\nclass = 1", fillcolor="#399de5"] ;
511 -> 512 ;
513 [label="desc_punctuation_percent <= 0.05\ngini = 0.2\nsamples = 7\nvalue = [8, 1]\nclass = 0", fillcolor="#e89152"] ;
511 -> 513 ;
514 [label="gini = 0.0\nsamples = 6\nvalue = [8, 0]\nclass = 0", fillcolor="#e58139"] ;
513 -> 514 ;
515 [label="gini = 0.0\nsamples = 1\nvalue = [0, 1]\nclass = 1", fillcolor="#399de5"] ;
513 -> 515 ;
516 [label="pub_day <= 11.5\ngini = 0.16\nsamples = 20\nvalue = [32, 3]\nclass = 0", fillcolor="#e78d4c"] ;
508 -> 516 ;
517 [label="desc_n_of_words <= 28.0\ngini = 0.47\nsamples = 6\nvalue = [5, 3]\nclass = 0", fillcolor="#f5cdb0"] ;
516 -> 517 ;
518 [label="desc_small_letters_percent <= 0.77\ngini = 0.38\nsamples = 4\nvalue = [1, 3]\nclass = 1", fillcolor="#7bbeee"] ;
517 -> 518 ;
519 [label="gini = 0.0\nsamples = 3\nvalue = [0, 3]\nclass = 1", fillcolor="#399de5"] ;
518 -> 519 ;
520 [label="gini = 0.0\nsamples = 1\nvalue = [1, 0]\nclass = 0", fillcolor="#e58139"] ;
518 -> 520 ;
521 [label="gini = 0.0\nsamples = 2\nvalue = [4, 0]\nclass = 0", fillcolor="#e58139"] ;
517 -> 521 ;
522 [label="gini = 0.0\nsamples = 14\nvalue = [27, 0]\nclass = 0", fillcolor="#e58139"] ;
516 -> 522 ;
523 [label="views <= 736751.0\ngini = 0.47\nsamples = 18\nvalue = [10, 16]\nclass = 1", fillcolor="#b5daf5"] ;
501 -> 523 ;
524 [label="category_id <= 24.5\ngini = 0.4\nsamples = 14\nvalue = [6, 16]\nclass = 1", fillcolor="#83c2ef"] ;
523 -> 524 ;
525 [label="n_of_tags <= 14.0\ngini = 0.12\nsamples = 9\nvalue = [1, 14]\nclass = 1", fillcolor="#47a4e7"] ;
524 -> 525 ;
526 [label="gini = 0.0\nsamples = 1\nvalue = [1, 0]\nclass = 0", fillcolor="#e58139"] ;
525 -> 526 ;
527 [label="gini = 0.0\nsamples = 8\nvalue = [0, 14]\nclass = 1", fillcolor="#399de5"] ;
525 -> 527 ;
528 [label="views <= 292870.5\ngini = 0.41\nsamples = 5\nvalue = [5, 2]\nclass = 0", fillcolor="#efb388"] ;
524 -> 528 ;
529 [label="gini = 0.0\nsamples = 1\nvalue = [0, 2]\nclass = 1", fillcolor="#399de5"] ;
528 -> 529 ;
530 [label="gini = 0.0\nsamples = 4\nvalue = [5, 0]\nclass = 0", fillcolor="#e58139"] ;
528 -> 530 ;
531 [label="gini = 0.0\nsamples = 4\nvalue = [4, 0]\nclass = 0", fillcolor="#e58139"] ;
523 -> 531 ;
532 [label="std_v <= 0.16\ngini = 0.3\nsamples = 7\nvalue = [2, 9]\nclass = 1", fillcolor="#65b3eb"] ;
500 -> 532 ;
533 [label="gini = 0.0\nsamples = 1\nvalue = [1, 0]\nclass = 0", fillcolor="#e58139"] ;
532 -> 533 ;
534 [label="avg_texts_coordX <= 197.7\ngini = 0.18\nsamples = 6\nvalue = [1, 9]\nclass = 1", fillcolor="#4fa8e8"] ;
532 -> 534 ;
535 [label="gini = 0.0\nsamples = 4\nvalue = [0, 7]\nclass = 1", fillcolor="#399de5"] ;
534 -> 535 ;
536 [label="pub_day <= 7.0\ngini = 0.44\nsamples = 2\nvalue = [1, 2]\nclass = 1", fillcolor="#9ccef2"] ;
534 -> 536 ;
537 [label="gini = 0.0\nsamples = 1\nvalue = [0, 2]\nclass = 1", fillcolor="#399de5"] ;
536 -> 537 ;
538 [label="gini = 0.0\nsamples = 1\nvalue = [1, 0]\nclass = 0", fillcolor="#e58139"] ;
536 -> 538 ;
539 [label="desc_small_letters_percent <= 0.72\ngini = 0.21\nsamples = 74\nvalue = [103, 14]\nclass = 0", fillcolor="#e99254"] ;
499 -> 539 ;
540 [label="people <= 37.5\ngini = 0.13\nsamples = 53\nvalue = [81, 6]\nclass = 0", fillcolor="#e78a48"] ;
539 -> 540 ;
541 [label="desc_punctuation <= 36.0\ngini = 0.11\nsamples = 52\nvalue = [81, 5]\nclass = 0", fillcolor="#e78945"] ;
540 -> 541 ;
542 [label="dislikes/views <= 0.0\ngini = 0.09\nsamples = 51\nvalue = [81, 4]\nclass = 0", fillcolor="#e68743"] ;
541 -> 542 ;
543 [label="gini = 0.0\nsamples = 30\nvalue = [51, 0]\nclass = 0", fillcolor="#e58139"] ;
542 -> 543 ;
544 [label="mean_v <= 0.55\ngini = 0.21\nsamples = 21\nvalue = [30, 4]\nclass = 0", fillcolor="#e89253"] ;
542 -> 544 ;
545 [label="entropy <= 6.71\ngini = 0.12\nsamples = 18\nvalue = [29, 2]\nclass = 0", fillcolor="#e78a47"] ;
544 -> 545 ;
546 [label="gini = 0.0\nsamples = 15\nvalue = [26, 0]\nclass = 0", fillcolor="#e58139"] ;
545 -> 546 ;
547 [label="std_s <= 0.27\ngini = 0.48\nsamples = 3\nvalue = [3, 2]\nclass = 0", fillcolor="#f6d5bd"] ;
545 -> 547 ;
548 [label="gini = 0.0\nsamples = 1\nvalue = [3, 0]\nclass = 0", fillcolor="#e58139"] ;
547 -> 548 ;
549 [label="gini = 0.0\nsamples = 2\nvalue = [0, 2]\nclass = 1", fillcolor="#399de5"] ;
547 -> 549 ;
550 [label="entropy <= 6.7\ngini = 0.44\nsamples = 3\nvalue = [1, 2]\nclass = 1", fillcolor="#9ccef2"] ;
544 -> 550 ;
551 [label="gini = 0.0\nsamples = 2\nvalue = [0, 2]\nclass = 1", fillcolor="#399de5"] ;
550 -> 551 ;
552 [label="gini = 0.0\nsamples = 1\nvalue = [1, 0]\nclass = 0", fillcolor="#e58139"] ;
550 -> 552 ;
553 [label="gini = 0.0\nsamples = 1\nvalue = [0, 1]\nclass = 1", fillcolor="#399de5"] ;
541 -> 553 ;
554 [label="gini = 0.0\nsamples = 1\nvalue = [0, 1]\nclass = 1", fillcolor="#399de5"] ;
540 -> 554 ;
555 [label="likes <= 2355.5\ngini = 0.39\nsamples = 21\nvalue = [22, 8]\nclass = 0", fillcolor="#eeaf81"] ;
539 -> 555 ;
556 [label="title_punctuation_percent <= 0.03\ngini = 0.38\nsamples = 7\nvalue = [2, 6]\nclass = 1", fillcolor="#7bbeee"] ;
555 -> 556 ;
557 [label="desc_length <= 204.0\ngini = 0.44\nsamples = 3\nvalue = [2, 1]\nclass = 0", fillcolor="#f2c09c"] ;
556 -> 557 ;
558 [label="gini = 0.0\nsamples = 2\nvalue = [2, 0]\nclass = 0", fillcolor="#e58139"] ;
557 -> 558 ;
559 [label="gini = 0.0\nsamples = 1\nvalue = [0, 1]\nclass = 1", fillcolor="#399de5"] ;
557 -> 559 ;
560 [label="gini = 0.0\nsamples = 4\nvalue = [0, 5]\nclass = 1", fillcolor="#399de5"] ;
556 -> 560 ;
561 [label="mean_s <= 0.67\ngini = 0.17\nsamples = 14\nvalue = [20, 2]\nclass = 0", fillcolor="#e88e4d"] ;
555 -> 561 ;
562 [label="gini = 0.0\nsamples = 12\nvalue = [20, 0]\nclass = 0", fillcolor="#e58139"] ;
561 -> 562 ;
563 [label="gini = 0.0\nsamples = 2\nvalue = [0, 2]\nclass = 1", fillcolor="#399de5"] ;
561 -> 563 ;
564 [label="gini = 0.0\nsamples = 11\nvalue = [0, 15]\nclass = 1", fillcolor="#399de5"] ;
494 -> 564 ;
565 [label="dislikes/views <= 0.0\ngini = 0.5\nsamples = 493\nvalue = [412, 376]\nclass = 0", fillcolor="#fdf4ee"] ;
493 -> 565 ;
566 [label="avg_texts_coordY <= 275.12\ngini = 0.41\nsamples = 115\nvalue = [129, 51]\nclass = 0", fillcolor="#efb387"] ;
565 -> 566 ;
567 [label="avg_texts_coordX <= 101.75\ngini = 0.36\nsamples = 100\nvalue = [117, 36]\nclass = 0", fillcolor="#eda876"] ;
566 -> 567 ;
568 [label="comment_count/views <= 0.0\ngini = 0.5\nsamples = 36\nvalue = [29, 24]\nclass = 0", fillcolor="#fbe9dd"] ;
567 -> 568 ;
569 [label="dislikes <= 199.5\ngini = 0.22\nsamples = 5\nvalue = [1, 7]\nclass = 1", fillcolor="#55abe9"] ;
568 -> 569 ;
570 [label="gini = 0.0\nsamples = 4\nvalue = [0, 7]\nclass = 1", fillcolor="#399de5"] ;
569 -> 570 ;
571 [label="gini = 0.0\nsamples = 1\nvalue = [1, 0]\nclass = 0", fillcolor="#e58139"] ;
569 -> 571 ;
572 [label="n_of_tags <= 8.5\ngini = 0.47\nsamples = 31\nvalue = [28, 17]\nclass = 0", fillcolor="#f5ceb1"] ;
568 -> 572 ;
573 [label="gini = 0.0\nsamples = 4\nvalue = [0, 5]\nclass = 1", fillcolor="#399de5"] ;
572 -> 573 ;
574 [label="isFacebook <= 0.5\ngini = 0.42\nsamples = 27\nvalue = [28, 12]\nclass = 0", fillcolor="#f0b78e"] ;
572 -> 574 ;
575 [label="people <= 6.0\ngini = 0.48\nsamples = 8\nvalue = [4, 6]\nclass = 1", fillcolor="#bddef6"] ;
574 -> 575 ;
576 [label="title_small_letters_percent <= 0.55\ngini = 0.38\nsamples = 6\nvalue = [2, 6]\nclass = 1", fillcolor="#7bbeee"] ;
575 -> 576 ;
577 [label="gini = 0.0\nsamples = 3\nvalue = [0, 5]\nclass = 1", fillcolor="#399de5"] ;
576 -> 577 ;
578 [label="desc_small_letters_percent <= 0.7\ngini = 0.44\nsamples = 3\nvalue = [2, 1]\nclass = 0", fillcolor="#f2c09c"] ;
576 -> 578 ;
579 [label="gini = 0.0\nsamples = 1\nvalue = [0, 1]\nclass = 1", fillcolor="#399de5"] ;
578 -> 579 ;
580 [label="gini = 0.0\nsamples = 2\nvalue = [2, 0]\nclass = 0", fillcolor="#e58139"] ;
578 -> 580 ;
581 [label="gini = 0.0\nsamples = 2\nvalue = [2, 0]\nclass = 0", fillcolor="#e58139"] ;
575 -> 581 ;
582 [label="comment_count/views <= 0.0\ngini = 0.32\nsamples = 19\nvalue = [24, 6]\nclass = 0", fillcolor="#eca06a"] ;
574 -> 582 ;
583 [label="dislikes/likes <= 0.06\ngini = 0.17\nsamples = 12\nvalue = [20, 2]\nclass = 0", fillcolor="#e88e4d"] ;
582 -> 583 ;
584 [label="desc_n_of_words <= 260.0\ngini = 0.09\nsamples = 11\nvalue = [20, 1]\nclass = 0", fillcolor="#e68743"] ;
583 -> 584 ;
585 [label="gini = 0.0\nsamples = 9\nvalue = [19, 0]\nclass = 0", fillcolor="#e58139"] ;
584 -> 585 ;
586 [label="pub_day <= 22.0\ngini = 0.5\nsamples = 2\nvalue = [1, 1]\nclass = 0", fillcolor="#ffffff"] ;
584 -> 586 ;
587 [label="gini = 0.0\nsamples = 1\nvalue = [0, 1]\nclass = 1", fillcolor="#399de5"] ;
586 -> 587 ;
588 [label="gini = 0.0\nsamples = 1\nvalue = [1, 0]\nclass = 0", fillcolor="#e58139"] ;
586 -> 588 ;
589 [label="gini = 0.0\nsamples = 1\nvalue = [0, 1]\nclass = 1", fillcolor="#399de5"] ;
583 -> 589 ;
590 [label="avg_texts_coordX <= 82.37\ngini = 0.5\nsamples = 7\nvalue = [4, 4]\nclass = 0", fillcolor="#ffffff"] ;
582 -> 590 ;
591 [label="gini = 0.0\nsamples = 3\nvalue = [4, 0]\nclass = 0", fillcolor="#e58139"] ;
590 -> 591 ;
592 [label="gini = 0.0\nsamples = 4\nvalue = [0, 4]\nclass = 1", fillcolor="#399de5"] ;
590 -> 592 ;
593 [label="desc_punctuation_percent <= 0.1\ngini = 0.21\nsamples = 64\nvalue = [88, 12]\nclass = 0", fillcolor="#e99254"] ;
567 -> 593 ;
594 [label="people <= 9.5\ngini = 0.05\nsamples = 51\nvalue = [74, 2]\nclass = 0", fillcolor="#e6843e"] ;
593 -> 594 ;
595 [label="likes/views <= 0.0\ngini = 0.03\nsamples = 48\nvalue = [71, 1]\nclass = 0", fillcolor="#e5833c"] ;
594 -> 595 ;
596 [label="dislikes <= 16.0\ngini = 0.32\nsamples = 4\nvalue = [4, 1]\nclass = 0", fillcolor="#eca06a"] ;
595 -> 596 ;
597 [label="gini = 0.0\nsamples = 3\nvalue = [4, 0]\nclass = 0", fillcolor="#e58139"] ;
596 -> 597 ;
598 [label="gini = 0.0\nsamples = 1\nvalue = [0, 1]\nclass = 1", fillcolor="#399de5"] ;
596 -> 598 ;
599 [label="gini = 0.0\nsamples = 44\nvalue = [67, 0]\nclass = 0", fillcolor="#e58139"] ;
595 -> 599 ;
600 [label="entropy <= 6.22\ngini = 0.38\nsamples = 3\nvalue = [3, 1]\nclass = 0", fillcolor="#eeab7b"] ;
594 -> 600 ;
601 [label="gini = 0.0\nsamples = 1\nvalue = [0, 1]\nclass = 1", fillcolor="#399de5"] ;
600 -> 601 ;
602 [label="gini = 0.0\nsamples = 2\nvalue = [3, 0]\nclass = 0", fillcolor="#e58139"] ;
600 -> 602 ;
603 [label="dislikes <= 32.0\ngini = 0.49\nsamples = 13\nvalue = [14, 10]\nclass = 0", fillcolor="#f8dbc6"] ;
593 -> 603 ;
604 [label="gini = 0.0\nsamples = 4\nvalue = [0, 9]\nclass = 1", fillcolor="#399de5"] ;
603 -> 604 ;
605 [label="entropy <= 6.81\ngini = 0.12\nsamples = 9\nvalue = [14, 1]\nclass = 0", fillcolor="#e78a47"] ;
603 -> 605 ;
606 [label="gini = 0.0\nsamples = 8\nvalue = [14, 0]\nclass = 0", fillcolor="#e58139"] ;
605 -> 606 ;
607 [label="gini = 0.0\nsamples = 1\nvalue = [0, 1]\nclass = 1", fillcolor="#399de5"] ;
605 -> 607 ;
608 [label="views <= 722112.0\ngini = 0.49\nsamples = 15\nvalue = [12, 15]\nclass = 1", fillcolor="#d7ebfa"] ;
566 -> 608 ;
609 [label="desc_n_of_words <= 203.0\ngini = 0.47\nsamples = 9\nvalue = [12, 7]\nclass = 0", fillcolor="#f4caac"] ;
608 -> 609 ;
610 [label="std_h <= 0.24\ngini = 0.32\nsamples = 8\nvalue = [12, 3]\nclass = 0", fillcolor="#eca06a"] ;
609 -> 610 ;
611 [label="gini = 0.0\nsamples = 1\nvalue = [0, 2]\nclass = 1", fillcolor="#399de5"] ;
610 -> 611 ;
612 [label="mean_h <= 0.29\ngini = 0.14\nsamples = 7\nvalue = [12, 1]\nclass = 0", fillcolor="#e78c49"] ;
610 -> 612 ;
613 [label="std_h <= 0.32\ngini = 0.5\nsamples = 2\nvalue = [1, 1]\nclass = 0", fillcolor="#ffffff"] ;
612 -> 613 ;
614 [label="gini = 0.0\nsamples = 1\nvalue = [1, 0]\nclass = 0", fillcolor="#e58139"] ;
613 -> 614 ;
615 [label="gini = 0.0\nsamples = 1\nvalue = [0, 1]\nclass = 1", fillcolor="#399de5"] ;
613 -> 615 ;
616 [label="gini = 0.0\nsamples = 5\nvalue = [11, 0]\nclass = 0", fillcolor="#e58139"] ;
612 -> 616 ;
617 [label="gini = 0.0\nsamples = 1\nvalue = [0, 4]\nclass = 1", fillcolor="#399de5"] ;
609 -> 617 ;
618 [label="gini = 0.0\nsamples = 6\nvalue = [0, 8]\nclass = 1", fillcolor="#399de5"] ;
608 -> 618 ;
619 [label="avg_texts_coordY <= 201.08\ngini = 0.5\nsamples = 378\nvalue = [283, 325]\nclass = 1", fillcolor="#e5f2fc"] ;
565 -> 619 ;
620 [label="comment_count/views <= 0.0\ngini = 0.49\nsamples = 201\nvalue = [173, 136]\nclass = 0", fillcolor="#f9e4d5"] ;
619 -> 620 ;
621 [label="dislikes <= 2.5\ngini = 0.47\nsamples = 153\nvalue = [148, 87]\nclass = 0", fillcolor="#f4cbad"] ;
620 -> 621 ;
622 [label="gini = 0.0\nsamples = 4\nvalue = [0, 10]\nclass = 1", fillcolor="#399de5"] ;
621 -> 622 ;
623 [label="category_id <= 24.5\ngini = 0.45\nsamples = 149\nvalue = [148, 77]\nclass = 0", fillcolor="#f3c3a0"] ;
621 -> 623 ;
624 [label="people <= 3.5\ngini = 0.49\nsamples = 98\nvalue = [79, 58]\nclass = 0", fillcolor="#f8deca"] ;
623 -> 624 ;
625 [label="pub_hour <= 15.5\ngini = 0.5\nsamples = 67\nvalue = [45, 48]\nclass = 1", fillcolor="#f3f9fd"] ;
624 -> 625 ;
626 [label="desc_punctuation_percent <= 0.03\ngini = 0.47\nsamples = 38\nvalue = [20, 34]\nclass = 1", fillcolor="#add7f4"] ;
625 -> 626 ;
627 [label="n_of_tags <= 2.5\ngini = 0.24\nsamples = 7\nvalue = [6, 1]\nclass = 0", fillcolor="#e9965a"] ;
626 -> 627 ;
628 [label="gini = 0.0\nsamples = 1\nvalue = [0, 1]\nclass = 1", fillcolor="#399de5"] ;
627 -> 628 ;
629 [label="gini = 0.0\nsamples = 6\nvalue = [6, 0]\nclass = 0", fillcolor="#e58139"] ;
627 -> 629 ;
630 [label="desc_capital_letters_percent <= 0.08\ngini = 0.42\nsamples = 31\nvalue = [14, 33]\nclass = 1", fillcolor="#8dc7f0"] ;
626 -> 630 ;
631 [label="mean_s <= 0.2\ngini = 0.26\nsamples = 21\nvalue = [5, 27]\nclass = 1", fillcolor="#5eafea"] ;
630 -> 631 ;
632 [label="title_n_of_words <= 7.5\ngini = 0.44\nsamples = 4\nvalue = [4, 2]\nclass = 0", fillcolor="#f2c09c"] ;
631 -> 632 ;
633 [label="gini = 0.0\nsamples = 1\nvalue = [0, 2]\nclass = 1", fillcolor="#399de5"] ;
632 -> 633 ;
634 [label="gini = 0.0\nsamples = 3\nvalue = [4, 0]\nclass = 0", fillcolor="#e58139"] ;
632 -> 634 ;
635 [label="title_capital_letters_percent <= 0.12\ngini = 0.07\nsamples = 17\nvalue = [1, 25]\nclass = 1", fillcolor="#41a1e6"] ;
631 -> 635 ;
636 [label="dislikes/views <= 0.0\ngini = 0.5\nsamples = 2\nvalue = [1, 1]\nclass = 0", fillcolor="#ffffff"] ;
635 -> 636 ;
637 [label="gini = 0.0\nsamples = 1\nvalue = [1, 0]\nclass = 0", fillcolor="#e58139"] ;
636 -> 637 ;
638 [label="gini = 0.0\nsamples = 1\nvalue = [0, 1]\nclass = 1", fillcolor="#399de5"] ;
636 -> 638 ;
639 [label="gini = 0.0\nsamples = 15\nvalue = [0, 24]\nclass = 1", fillcolor="#399de5"] ;
635 -> 639 ;
640 [label="title_punctuation_percent <= 0.01\ngini = 0.48\nsamples = 10\nvalue = [9, 6]\nclass = 0", fillcolor="#f6d5bd"] ;
630 -> 640 ;
641 [label="gini = 0.0\nsamples = 2\nvalue = [0, 3]\nclass = 1", fillcolor="#399de5"] ;
640 -> 641 ;
642 [label="pub_hour <= 11.5\ngini = 0.38\nsamples = 8\nvalue = [9, 3]\nclass = 0", fillcolor="#eeab7b"] ;
640 -> 642 ;
643 [label="gini = 0.0\nsamples = 5\nvalue = [8, 0]\nclass = 0", fillcolor="#e58139"] ;
642 -> 643 ;
644 [label="avg_texts_coordY <= 141.06\ngini = 0.38\nsamples = 3\nvalue = [1, 3]\nclass = 1", fillcolor="#7bbeee"] ;
642 -> 644 ;
645 [label="gini = 0.0\nsamples = 1\nvalue = [1, 0]\nclass = 0", fillcolor="#e58139"] ;
644 -> 645 ;
646 [label="gini = 0.0\nsamples = 2\nvalue = [0, 3]\nclass = 1", fillcolor="#399de5"] ;
644 -> 646 ;
647 [label="avg_texts_coordX <= 216.07\ngini = 0.46\nsamples = 29\nvalue = [25, 14]\nclass = 0", fillcolor="#f4c8a8"] ;
625 -> 647 ;
648 [label="desc_length <= 1300.5\ngini = 0.38\nsamples = 22\nvalue = [23, 8]\nclass = 0", fillcolor="#eead7e"] ;
647 -> 648 ;
649 [label="isInstagram <= 0.5\ngini = 0.17\nsamples = 16\nvalue = [20, 2]\nclass = 0", fillcolor="#e88e4d"] ;
648 -> 649 ;
650 [label="gini = 0.0\nsamples = 11\nvalue = [15, 0]\nclass = 0", fillcolor="#e58139"] ;
649 -> 650 ;
651 [label="dislikes/views <= 0.0\ngini = 0.41\nsamples = 5\nvalue = [5, 2]\nclass = 0", fillcolor="#efb388"] ;
649 -> 651 ;
652 [label="gini = 0.0\nsamples = 1\nvalue = [0, 1]\nclass = 1", fillcolor="#399de5"] ;
651 -> 652 ;
653 [label="likes <= 5975.5\ngini = 0.28\nsamples = 4\nvalue = [5, 1]\nclass = 0", fillcolor="#ea9a61"] ;
651 -> 653 ;
654 [label="gini = 0.0\nsamples = 2\nvalue = [4, 0]\nclass = 0", fillcolor="#e58139"] ;
653 -> 654 ;
655 [label="dislikes <= 202.5\ngini = 0.5\nsamples = 2\nvalue = [1, 1]\nclass = 0", fillcolor="#ffffff"] ;
653 -> 655 ;
656 [label="gini = 0.0\nsamples = 1\nvalue = [1, 0]\nclass = 0", fillcolor="#e58139"] ;
655 -> 656 ;
657 [label="gini = 0.0\nsamples = 1\nvalue = [0, 1]\nclass = 1", fillcolor="#399de5"] ;
655 -> 657 ;
658 [label="likes/views <= 0.01\ngini = 0.44\nsamples = 6\nvalue = [3, 6]\nclass = 1", fillcolor="#9ccef2"] ;
648 -> 658 ;
659 [label="gini = 0.0\nsamples = 1\nvalue = [2, 0]\nclass = 0", fillcolor="#e58139"] ;
658 -> 659 ;
660 [label="mean_v <= 0.37\ngini = 0.24\nsamples = 5\nvalue = [1, 6]\nclass = 1", fillcolor="#5aade9"] ;
658 -> 660 ;
661 [label="gini = 0.0\nsamples = 4\nvalue = [0, 6]\nclass = 1", fillcolor="#399de5"] ;
660 -> 661 ;
662 [label="gini = 0.0\nsamples = 1\nvalue = [1, 0]\nclass = 0", fillcolor="#e58139"] ;
660 -> 662 ;
663 [label="desc_punctuation_percent <= 0.13\ngini = 0.38\nsamples = 7\nvalue = [2, 6]\nclass = 1", fillcolor="#7bbeee"] ;
647 -> 663 ;
664 [label="dislikes/likes <= 0.02\ngini = 0.24\nsamples = 6\nvalue = [1, 6]\nclass = 1", fillcolor="#5aade9"] ;
663 -> 664 ;
665 [label="gini = 0.0\nsamples = 4\nvalue = [0, 5]\nclass = 1", fillcolor="#399de5"] ;
664 -> 665 ;
666 [label="isInstagram <= 0.5\ngini = 0.5\nsamples = 2\nvalue = [1, 1]\nclass = 0", fillcolor="#ffffff"] ;
664 -> 666 ;
667 [label="gini = 0.0\nsamples = 1\nvalue = [0, 1]\nclass = 1", fillcolor="#399de5"] ;
666 -> 667 ;
668 [label="gini = 0.0\nsamples = 1\nvalue = [1, 0]\nclass = 0", fillcolor="#e58139"] ;
666 -> 668 ;
669 [label="gini = 0.0\nsamples = 1\nvalue = [1, 0]\nclass = 0", fillcolor="#e58139"] ;
663 -> 669 ;
670 [label="likes/views <= 0.01\ngini = 0.35\nsamples = 31\nvalue = [34, 10]\nclass = 0", fillcolor="#eda673"] ;
624 -> 670 ;
671 [label="faces <= 2.5\ngini = 0.28\nsamples = 4\nvalue = [1, 5]\nclass = 1", fillcolor="#61b1ea"] ;
670 -> 671 ;
672 [label="gini = 0.0\nsamples = 3\nvalue = [0, 5]\nclass = 1", fillcolor="#399de5"] ;
671 -> 672 ;
673 [label="gini = 0.0\nsamples = 1\nvalue = [1, 0]\nclass = 0", fillcolor="#e58139"] ;
671 -> 673 ;
674 [label="avg_texts_coordX <= 259.25\ngini = 0.23\nsamples = 27\nvalue = [33, 5]\nclass = 0", fillcolor="#e99457"] ;
670 -> 674 ;
675 [label="mean_v <= 0.47\ngini = 0.12\nsamples = 23\nvalue = [30, 2]\nclass = 0", fillcolor="#e78946"] ;
674 -> 675 ;
676 [label="faces <= 5.0\ngini = 0.07\nsamples = 20\nvalue = [28, 1]\nclass = 0", fillcolor="#e68640"] ;
675 -> 676 ;
677 [label="gini = 0.0\nsamples = 18\nvalue = [27, 0]\nclass = 0", fillcolor="#e58139"] ;
676 -> 677 ;
678 [label="category_id <= 13.5\ngini = 0.5\nsamples = 2\nvalue = [1, 1]\nclass = 0", fillcolor="#ffffff"] ;
676 -> 678 ;
679 [label="gini = 0.0\nsamples = 1\nvalue = [1, 0]\nclass = 0", fillcolor="#e58139"] ;
678 -> 679 ;
680 [label="gini = 0.0\nsamples = 1\nvalue = [0, 1]\nclass = 1", fillcolor="#399de5"] ;
678 -> 680 ;
681 [label="isInstagram <= 0.5\ngini = 0.44\nsamples = 3\nvalue = [2, 1]\nclass = 0", fillcolor="#f2c09c"] ;
675 -> 681 ;
682 [label="gini = 0.0\nsamples = 2\nvalue = [2, 0]\nclass = 0", fillcolor="#e58139"] ;
681 -> 682 ;
683 [label="gini = 0.0\nsamples = 1\nvalue = [0, 1]\nclass = 1", fillcolor="#399de5"] ;
681 -> 683 ;
684 [label="avg_texts_coordY <= 160.88\ngini = 0.5\nsamples = 4\nvalue = [3, 3]\nclass = 0", fillcolor="#ffffff"] ;
674 -> 684 ;
685 [label="gini = 0.0\nsamples = 2\nvalue = [0, 3]\nclass = 1", fillcolor="#399de5"] ;
684 -> 685 ;
686 [label="gini = 0.0\nsamples = 2\nvalue = [3, 0]\nclass = 0", fillcolor="#e58139"] ;
684 -> 686 ;
687 [label="avg_texts_coordY <= 37.5\ngini = 0.34\nsamples = 51\nvalue = [69, 19]\nclass = 0", fillcolor="#eca470"] ;
623 -> 687 ;
688 [label="mean_h <= 0.19\ngini = 0.5\nsamples = 15\nvalue = [13, 11]\nclass = 0", fillcolor="#fbece1"] ;
687 -> 688 ;
689 [label="mean_s <= 0.17\ngini = 0.32\nsamples = 6\nvalue = [2, 8]\nclass = 1", fillcolor="#6ab6ec"] ;
688 -> 689 ;
690 [label="gini = 0.0\nsamples = 1\nvalue = [1, 0]\nclass = 0", fillcolor="#e58139"] ;
689 -> 690 ;
691 [label="desc_capital_letters_percent <= 0.14\ngini = 0.2\nsamples = 5\nvalue = [1, 8]\nclass = 1", fillcolor="#52a9e8"] ;
689 -> 691 ;
692 [label="gini = 0.0\nsamples = 4\nvalue = [0, 8]\nclass = 1", fillcolor="#399de5"] ;
691 -> 692 ;
693 [label="gini = 0.0\nsamples = 1\nvalue = [1, 0]\nclass = 0", fillcolor="#e58139"] ;
691 -> 693 ;
694 [label="title_small_letters_percent <= 0.63\ngini = 0.34\nsamples = 9\nvalue = [11, 3]\nclass = 0", fillcolor="#eca36f"] ;
688 -> 694 ;
695 [label="mean_s <= 0.16\ngini = 0.17\nsamples = 6\nvalue = [10, 1]\nclass = 0", fillcolor="#e88e4d"] ;
694 -> 695 ;
696 [label="gini = 0.0\nsamples = 1\nvalue = [0, 1]\nclass = 1", fillcolor="#399de5"] ;
695 -> 696 ;
697 [label="gini = 0.0\nsamples = 5\nvalue = [10, 0]\nclass = 0", fillcolor="#e58139"] ;
695 -> 697 ;
698 [label="title_small_letters <= 32.0\ngini = 0.44\nsamples = 3\nvalue = [1, 2]\nclass = 1", fillcolor="#9ccef2"] ;
694 -> 698 ;
699 [label="gini = 0.0\nsamples = 2\nvalue = [0, 2]\nclass = 1", fillcolor="#399de5"] ;
698 -> 699 ;
700 [label="gini = 0.0\nsamples = 1\nvalue = [1, 0]\nclass = 0", fillcolor="#e58139"] ;
698 -> 700 ;
701 [label="desc_capital_letters_percent <= 0.04\ngini = 0.22\nsamples = 36\nvalue = [56, 8]\nclass = 0", fillcolor="#e99355"] ;
687 -> 701 ;
702 [label="isInstagram <= 0.5\ngini = 0.48\nsamples = 5\nvalue = [6, 4]\nclass = 0", fillcolor="#f6d5bd"] ;
701 -> 702 ;
703 [label="gini = 0.0\nsamples = 3\nvalue = [0, 4]\nclass = 1", fillcolor="#399de5"] ;
702 -> 703 ;
704 [label="gini = 0.0\nsamples = 2\nvalue = [6, 0]\nclass = 0", fillcolor="#e58139"] ;
702 -> 704 ;
705 [label="ocr_sentiment_compound <= 0.38\ngini = 0.14\nsamples = 31\nvalue = [50, 4]\nclass = 0", fillcolor="#e78b49"] ;
701 -> 705 ;
706 [label="desc_small_letters <= 357.0\ngini = 0.08\nsamples = 29\nvalue = [47, 2]\nclass = 0", fillcolor="#e68641"] ;
705 -> 706 ;
707 [label="desc_punctuation <= 61.0\ngini = 0.35\nsamples = 7\nvalue = [7, 2]\nclass = 0", fillcolor="#eca572"] ;
706 -> 707 ;
708 [label="gini = 0.0\nsamples = 5\nvalue = [7, 0]\nclass = 0", fillcolor="#e58139"] ;
707 -> 708 ;
709 [label="gini = 0.0\nsamples = 2\nvalue = [0, 2]\nclass = 1", fillcolor="#399de5"] ;
707 -> 709 ;
710 [label="gini = 0.0\nsamples = 22\nvalue = [40, 0]\nclass = 0", fillcolor="#e58139"] ;
706 -> 710 ;
711 [label="std_h <= 0.36\ngini = 0.48\nsamples = 2\nvalue = [3, 2]\nclass = 0", fillcolor="#f6d5bd"] ;
705 -> 711 ;
712 [label="gini = 0.0\nsamples = 1\nvalue = [0, 2]\nclass = 1", fillcolor="#399de5"] ;
711 -> 712 ;
713 [label="gini = 0.0\nsamples = 1\nvalue = [3, 0]\nclass = 0", fillcolor="#e58139"] ;
711 -> 713 ;
714 [label="pub_day <= 24.5\ngini = 0.45\nsamples = 48\nvalue = [25, 49]\nclass = 1", fillcolor="#9ecff2"] ;
620 -> 714 ;
715 [label="desc_n_of_words <= 428.5\ngini = 0.35\nsamples = 38\nvalue = [13, 44]\nclass = 1", fillcolor="#74baed"] ;
714 -> 715 ;
716 [label="std_s <= 0.26\ngini = 0.3\nsamples = 36\nvalue = [10, 44]\nclass = 1", fillcolor="#66b3eb"] ;
715 -> 716 ;
717 [label="desc_small_letters <= 333.0\ngini = 0.47\nsamples = 16\nvalue = [8, 13]\nclass = 1", fillcolor="#b3d9f5"] ;
716 -> 717 ;
718 [label="gini = 0.0\nsamples = 2\nvalue = [3, 0]\nclass = 0", fillcolor="#e58139"] ;
717 -> 718 ;
719 [label="mean_h <= 0.18\ngini = 0.4\nsamples = 14\nvalue = [5, 13]\nclass = 1", fillcolor="#85c3ef"] ;
717 -> 719 ;
720 [label="gini = 0.0\nsamples = 3\nvalue = [3, 0]\nclass = 0", fillcolor="#e58139"] ;
719 -> 720 ;
721 [label="category_id <= 5.5\ngini = 0.23\nsamples = 11\nvalue = [2, 13]\nclass = 1", fillcolor="#57ace9"] ;
719 -> 721 ;
722 [label="gini = 0.0\nsamples = 1\nvalue = [1, 0]\nclass = 0", fillcolor="#e58139"] ;
721 -> 722 ;
723 [label="desc_n_of_urls <= 1.5\ngini = 0.13\nsamples = 10\nvalue = [1, 13]\nclass = 1", fillcolor="#48a5e7"] ;
721 -> 723 ;
724 [label="mean_v <= 0.28\ngini = 0.5\nsamples = 2\nvalue = [1, 1]\nclass = 0", fillcolor="#ffffff"] ;
723 -> 724 ;
725 [label="gini = 0.0\nsamples = 1\nvalue = [0, 1]\nclass = 1", fillcolor="#399de5"] ;
724 -> 725 ;
726 [label="gini = 0.0\nsamples = 1\nvalue = [1, 0]\nclass = 0", fillcolor="#e58139"] ;
724 -> 726 ;
727 [label="gini = 0.0\nsamples = 8\nvalue = [0, 12]\nclass = 1", fillcolor="#399de5"] ;
723 -> 727 ;
728 [label="mean_v <= 0.19\ngini = 0.11\nsamples = 20\nvalue = [2, 31]\nclass = 1", fillcolor="#46a3e7"] ;
716 -> 728 ;
729 [label="gini = 0.0\nsamples = 1\nvalue = [1, 0]\nclass = 0", fillcolor="#e58139"] ;
728 -> 729 ;
730 [label="likes/views <= 0.04\ngini = 0.06\nsamples = 19\nvalue = [1, 31]\nclass = 1", fillcolor="#3fa0e6"] ;
728 -> 730 ;
731 [label="gini = 0.0\nsamples = 17\nvalue = [0, 30]\nclass = 1", fillcolor="#399de5"] ;
730 -> 731 ;
732 [label="Sad <= 1.0\ngini = 0.5\nsamples = 2\nvalue = [1, 1]\nclass = 0", fillcolor="#ffffff"] ;
730 -> 732 ;
733 [label="gini = 0.0\nsamples = 1\nvalue = [1, 0]\nclass = 0", fillcolor="#e58139"] ;
732 -> 733 ;
734 [label="gini = 0.0\nsamples = 1\nvalue = [0, 1]\nclass = 1", fillcolor="#399de5"] ;
732 -> 734 ;
735 [label="gini = 0.0\nsamples = 2\nvalue = [3, 0]\nclass = 0", fillcolor="#e58139"] ;
715 -> 735 ;
736 [label="avg_texts_coordX <= 223.25\ngini = 0.42\nsamples = 10\nvalue = [12, 5]\nclass = 0", fillcolor="#f0b58b"] ;
714 -> 736 ;
737 [label="people <= 17.5\ngini = 0.14\nsamples = 7\nvalue = [12, 1]\nclass = 0", fillcolor="#e78c49"] ;
736 -> 737 ;
738 [label="gini = 0.0\nsamples = 6\nvalue = [12, 0]\nclass = 0", fillcolor="#e58139"] ;
737 -> 738 ;
739 [label="gini = 0.0\nsamples = 1\nvalue = [0, 1]\nclass = 1", fillcolor="#399de5"] ;
737 -> 739 ;
740 [label="gini = 0.0\nsamples = 3\nvalue = [0, 4]\nclass = 1", fillcolor="#399de5"] ;
736 -> 740 ;
741 [label="pub_hour <= 13.5\ngini = 0.47\nsamples = 177\nvalue = [110, 189]\nclass = 1", fillcolor="#acd6f4"] ;
619 -> 741 ;
742 [label="desc_small_letters_percent <= 0.56\ngini = 0.29\nsamples = 86\nvalue = [25, 115]\nclass = 1", fillcolor="#64b2eb"] ;
741 -> 742 ;
743 [label="gini = 0.0\nsamples = 3\nvalue = [4, 0]\nclass = 0", fillcolor="#e58139"] ;
742 -> 743 ;
744 [label="faces <= 4.5\ngini = 0.26\nsamples = 83\nvalue = [21, 115]\nclass = 1", fillcolor="#5dafea"] ;
742 -> 744 ;
745 [label="likes/views <= 0.04\ngini = 0.21\nsamples = 79\nvalue = [16, 115]\nclass = 1", fillcolor="#55abe9"] ;
744 -> 745 ;
746 [label="desc_length <= 3213.5\ngini = 0.18\nsamples = 77\nvalue = [13, 115]\nclass = 1", fillcolor="#4fa8e8"] ;
745 -> 746 ;
747 [label="std_v <= 0.41\ngini = 0.16\nsamples = 76\nvalue = [11, 115]\nclass = 1", fillcolor="#4ca6e7"] ;
746 -> 747 ;
748 [label="comment_count/views <= 0.0\ngini = 0.13\nsamples = 75\nvalue = [9, 115]\nclass = 1", fillcolor="#48a5e7"] ;
747 -> 748 ;
749 [label="gini = 0.0\nsamples = 1\nvalue = [1, 0]\nclass = 0", fillcolor="#e58139"] ;
748 -> 749 ;
750 [label="desc_punctuation <= 82.5\ngini = 0.12\nsamples = 74\nvalue = [8, 115]\nclass = 1", fillcolor="#47a4e7"] ;
748 -> 750 ;
751 [label="title_small_letters <= 21.0\ngini = 0.08\nsamples = 70\nvalue = [5, 111]\nclass = 1", fillcolor="#42a1e6"] ;
750 -> 751 ;
752 [label="avg_texts_coordY <= 256.81\ngini = 0.38\nsamples = 6\nvalue = [3, 9]\nclass = 1", fillcolor="#7bbeee"] ;
751 -> 752 ;
753 [label="gini = 0.0\nsamples = 4\nvalue = [0, 9]\nclass = 1", fillcolor="#399de5"] ;
752 -> 753 ;
754 [label="gini = 0.0\nsamples = 2\nvalue = [3, 0]\nclass = 0", fillcolor="#e58139"] ;
752 -> 754 ;
755 [label="likes <= 5038.0\ngini = 0.04\nsamples = 64\nvalue = [2, 102]\nclass = 1", fillcolor="#3d9fe6"] ;
751 -> 755 ;
756 [label="gini = 0.0\nsamples = 43\nvalue = [0, 72]\nclass = 1", fillcolor="#399de5"] ;
755 -> 756 ;
757 [label="Angry <= 0.5\ngini = 0.12\nsamples = 21\nvalue = [2, 30]\nclass = 1", fillcolor="#46a4e7"] ;
755 -> 757 ;
758 [label="gini = 0.0\nsamples = 15\nvalue = [0, 23]\nclass = 1", fillcolor="#399de5"] ;
757 -> 758 ;
759 [label="comment_count/views <= 0.0\ngini = 0.35\nsamples = 6\nvalue = [2, 7]\nclass = 1", fillcolor="#72b9ec"] ;
757 -> 759 ;
760 [label="gini = 0.0\nsamples = 2\nvalue = [2, 0]\nclass = 0", fillcolor="#e58139"] ;
759 -> 760 ;
761 [label="gini = 0.0\nsamples = 4\nvalue = [0, 7]\nclass = 1", fillcolor="#399de5"] ;
759 -> 761 ;
762 [label="desc_small_letters <= 1746.0\ngini = 0.49\nsamples = 4\nvalue = [3, 4]\nclass = 1", fillcolor="#cee6f8"] ;
750 -> 762 ;
763 [label="gini = 0.0\nsamples = 2\nvalue = [3, 0]\nclass = 0", fillcolor="#e58139"] ;
762 -> 763 ;
764 [label="gini = 0.0\nsamples = 2\nvalue = [0, 4]\nclass = 1", fillcolor="#399de5"] ;
762 -> 764 ;
765 [label="gini = 0.0\nsamples = 1\nvalue = [2, 0]\nclass = 0", fillcolor="#e58139"] ;
747 -> 765 ;
766 [label="gini = 0.0\nsamples = 1\nvalue = [2, 0]\nclass = 0", fillcolor="#e58139"] ;
746 -> 766 ;
767 [label="gini = 0.0\nsamples = 2\nvalue = [3, 0]\nclass = 0", fillcolor="#e58139"] ;
745 -> 767 ;
768 [label="gini = 0.0\nsamples = 4\nvalue = [5, 0]\nclass = 0", fillcolor="#e58139"] ;
744 -> 768 ;
769 [label="comment_count/views <= 0.0\ngini = 0.5\nsamples = 91\nvalue = [85, 74]\nclass = 0", fillcolor="#fcefe5"] ;
741 -> 769 ;
770 [label="desc_n_of_urls <= 1.5\ngini = 0.21\nsamples = 20\nvalue = [30, 4]\nclass = 0", fillcolor="#e89253"] ;
769 -> 770 ;
771 [label="desc_capital_letters <= 27.5\ngini = 0.5\nsamples = 5\nvalue = [4, 4]\nclass = 0", fillcolor="#ffffff"] ;
770 -> 771 ;
772 [label="gini = 0.0\nsamples = 2\nvalue = [4, 0]\nclass = 0", fillcolor="#e58139"] ;
771 -> 772 ;
773 [label="gini = 0.0\nsamples = 3\nvalue = [0, 4]\nclass = 1", fillcolor="#399de5"] ;
771 -> 773 ;
774 [label="gini = 0.0\nsamples = 15\nvalue = [26, 0]\nclass = 0", fillcolor="#e58139"] ;
770 -> 774 ;
775 [label="category_id <= 12.5\ngini = 0.49\nsamples = 71\nvalue = [55, 70]\nclass = 1", fillcolor="#d5eaf9"] ;
769 -> 775 ;
776 [label="gini = 0.0\nsamples = 6\nvalue = [0, 14]\nclass = 1", fillcolor="#399de5"] ;
775 -> 776 ;
777 [label="desc_punctuation_percent <= 0.12\ngini = 0.5\nsamples = 65\nvalue = [55, 56]\nclass = 1", fillcolor="#fbfdff"] ;
775 -> 777 ;
778 [label="dislikes/likes <= 0.02\ngini = 0.49\nsamples = 54\nvalue = [53, 42]\nclass = 0", fillcolor="#fae5d6"] ;
777 -> 778 ;
779 [label="desc_small_letters_percent <= 0.63\ngini = 0.28\nsamples = 8\nvalue = [3, 15]\nclass = 1", fillcolor="#61b1ea"] ;
778 -> 779 ;
780 [label="gini = 0.0\nsamples = 1\nvalue = [3, 0]\nclass = 0", fillcolor="#e58139"] ;
779 -> 780 ;
781 [label="gini = 0.0\nsamples = 7\nvalue = [0, 15]\nclass = 1", fillcolor="#399de5"] ;
779 -> 781 ;
782 [label="n_of_tags <= 26.5\ngini = 0.46\nsamples = 46\nvalue = [50, 27]\nclass = 0", fillcolor="#f3c5a4"] ;
778 -> 782 ;
783 [label="category_id <= 18.0\ngini = 0.49\nsamples = 25\nvalue = [18, 23]\nclass = 1", fillcolor="#d4eaf9"] ;
782 -> 783 ;
784 [label="gini = 0.0\nsamples = 7\nvalue = [0, 10]\nclass = 1", fillcolor="#399de5"] ;
783 -> 784 ;
785 [label="title_n_of_words <= 8.5\ngini = 0.49\nsamples = 18\nvalue = [18, 13]\nclass = 0", fillcolor="#f8dcc8"] ;
783 -> 785 ;
786 [label="title_small_letters <= 37.5\ngini = 0.15\nsamples = 8\nvalue = [11, 1]\nclass = 0", fillcolor="#e78c4b"] ;
785 -> 786 ;
787 [label="gini = 0.0\nsamples = 7\nvalue = [11, 0]\nclass = 0", fillcolor="#e58139"] ;
786 -> 787 ;
788 [label="gini = 0.0\nsamples = 1\nvalue = [0, 1]\nclass = 1", fillcolor="#399de5"] ;
786 -> 788 ;
789 [label="title_punctuation_percent <= 0.02\ngini = 0.47\nsamples = 10\nvalue = [7, 12]\nclass = 1", fillcolor="#acd6f4"] ;
785 -> 789 ;
790 [label="gini = 0.0\nsamples = 2\nvalue = [4, 0]\nclass = 0", fillcolor="#e58139"] ;
789 -> 790 ;
791 [label="avg_texts_coordX <= 242.21\ngini = 0.32\nsamples = 8\nvalue = [3, 12]\nclass = 1", fillcolor="#6ab6ec"] ;
789 -> 791 ;
792 [label="dislikes <= 205.0\ngini = 0.14\nsamples = 7\nvalue = [1, 12]\nclass = 1", fillcolor="#49a5e7"] ;
791 -> 792 ;
793 [label="gini = 0.0\nsamples = 6\nvalue = [0, 12]\nclass = 1", fillcolor="#399de5"] ;
792 -> 793 ;
794 [label="gini = 0.0\nsamples = 1\nvalue = [1, 0]\nclass = 0", fillcolor="#e58139"] ;
792 -> 794 ;
795 [label="gini = 0.0\nsamples = 1\nvalue = [2, 0]\nclass = 0", fillcolor="#e58139"] ;
791 -> 795 ;
796 [label="title_small_letters_percent <= 0.61\ngini = 0.2\nsamples = 21\nvalue = [32, 4]\nclass = 0", fillcolor="#e89152"] ;
782 -> 796 ;
797 [label="views <= 28643.0\ngini = 0.11\nsamples = 18\nvalue = [31, 2]\nclass = 0", fillcolor="#e78946"] ;
796 -> 797 ;
798 [label="gini = 0.0\nsamples = 1\nvalue = [0, 1]\nclass = 1", fillcolor="#399de5"] ;
797 -> 798 ;
799 [label="comment_count <= 1303.5\ngini = 0.06\nsamples = 17\nvalue = [31, 1]\nclass = 0", fillcolor="#e6853f"] ;
797 -> 799 ;
800 [label="gini = 0.0\nsamples = 16\nvalue = [31, 0]\nclass = 0", fillcolor="#e58139"] ;
799 -> 800 ;
801 [label="gini = 0.0\nsamples = 1\nvalue = [0, 1]\nclass = 1", fillcolor="#399de5"] ;
799 -> 801 ;
802 [label="title_capital_letters <= 7.5\ngini = 0.44\nsamples = 3\nvalue = [1, 2]\nclass = 1", fillcolor="#9ccef2"] ;
796 -> 802 ;
803 [label="gini = 0.0\nsamples = 1\nvalue = [1, 0]\nclass = 0", fillcolor="#e58139"] ;
802 -> 803 ;
804 [label="gini = 0.0\nsamples = 2\nvalue = [0, 2]\nclass = 1", fillcolor="#399de5"] ;
802 -> 804 ;
805 [label="dislikes/likes <= 0.01\ngini = 0.22\nsamples = 11\nvalue = [2, 14]\nclass = 1", fillcolor="#55abe9"] ;
777 -> 805 ;
806 [label="gini = 0.0\nsamples = 2\nvalue = [2, 0]\nclass = 0", fillcolor="#e58139"] ;
805 -> 806 ;
807 [label="gini = 0.0\nsamples = 9\nvalue = [0, 14]\nclass = 1", fillcolor="#399de5"] ;
805 -> 807 ;
808 [label="std_v <= 0.37\ngini = 0.29\nsamples = 433\nvalue = [552, 120]\nclass = 0", fillcolor="#eb9c64"] ;
492 -> 808 ;
809 [label="views <= 2026218.5\ngini = 0.24\nsamples = 279\nvalue = [359, 57]\nclass = 0", fillcolor="#e99558"] ;
808 -> 809 ;
810 [label="desc_punctuation <= 52.5\ngini = 0.39\nsamples = 113\nvalue = [122, 43]\nclass = 0", fillcolor="#eead7f"] ;
809 -> 810 ;
811 [label="desc_length <= 489.5\ngini = 0.43\nsamples = 89\nvalue = [87, 40]\nclass = 0", fillcolor="#f1bb94"] ;
810 -> 811 ;
812 [label="dislikes/likes <= 0.02\ngini = 0.29\nsamples = 35\nvalue = [42, 9]\nclass = 0", fillcolor="#eb9c63"] ;
811 -> 812 ;
813 [label="gini = 0.0\nsamples = 2\nvalue = [0, 3]\nclass = 1", fillcolor="#399de5"] ;
812 -> 813 ;
814 [label="desc_n_of_emojis <= 0.5\ngini = 0.22\nsamples = 33\nvalue = [42, 6]\nclass = 0", fillcolor="#e99355"] ;
812 -> 814 ;
815 [label="desc_capital_letters_percent <= 0.08\ngini = 0.16\nsamples = 30\nvalue = [41, 4]\nclass = 0", fillcolor="#e88d4c"] ;
814 -> 815 ;
816 [label="people <= 3.5\ngini = 0.31\nsamples = 15\nvalue = [17, 4]\nclass = 0", fillcolor="#eb9f68"] ;
815 -> 816 ;
817 [label="category_id <= 16.0\ngini = 0.1\nsamples = 12\nvalue = [17, 1]\nclass = 0", fillcolor="#e78845"] ;
816 -> 817 ;
818 [label="pub_day_of_the_week <= 2.5\ngini = 0.32\nsamples = 3\nvalue = [4, 1]\nclass = 0", fillcolor="#eca06a"] ;
817 -> 818 ;
819 [label="gini = 0.0\nsamples = 1\nvalue = [0, 1]\nclass = 1", fillcolor="#399de5"] ;
818 -> 819 ;
820 [label="gini = 0.0\nsamples = 2\nvalue = [4, 0]\nclass = 0", fillcolor="#e58139"] ;
818 -> 820 ;
821 [label="gini = 0.0\nsamples = 9\nvalue = [13, 0]\nclass = 0", fillcolor="#e58139"] ;
817 -> 821 ;
822 [label="gini = 0.0\nsamples = 3\nvalue = [0, 3]\nclass = 1", fillcolor="#399de5"] ;
816 -> 822 ;
823 [label="gini = 0.0\nsamples = 15\nvalue = [24, 0]\nclass = 0", fillcolor="#e58139"] ;
815 -> 823 ;
824 [label="mean_s <= 0.46\ngini = 0.44\nsamples = 3\nvalue = [1, 2]\nclass = 1", fillcolor="#9ccef2"] ;
814 -> 824 ;
825 [label="gini = 0.0\nsamples = 2\nvalue = [0, 2]\nclass = 1", fillcolor="#399de5"] ;
824 -> 825 ;
826 [label="gini = 0.0\nsamples = 1\nvalue = [1, 0]\nclass = 0", fillcolor="#e58139"] ;
824 -> 826 ;
827 [label="dislikes <= 625.5\ngini = 0.48\nsamples = 54\nvalue = [45, 31]\nclass = 0", fillcolor="#f7d8c1"] ;
811 -> 827 ;
828 [label="dislikes/views <= 0.0\ngini = 0.22\nsamples = 23\nvalue = [28, 4]\nclass = 0", fillcolor="#e99355"] ;
827 -> 828 ;
829 [label="desc_punctuation_percent <= 0.11\ngini = 0.12\nsamples = 22\nvalue = [28, 2]\nclass = 0", fillcolor="#e78a47"] ;
828 -> 829 ;
830 [label="desc_length <= 1386.5\ngini = 0.07\nsamples = 21\nvalue = [28, 1]\nclass = 0", fillcolor="#e68640"] ;
829 -> 830 ;
831 [label="gini = 0.0\nsamples = 18\nvalue = [26, 0]\nclass = 0", fillcolor="#e58139"] ;
830 -> 831 ;
832 [label="title_punctuation_percent <= 0.02\ngini = 0.44\nsamples = 3\nvalue = [2, 1]\nclass = 0", fillcolor="#f2c09c"] ;
830 -> 832 ;
833 [label="gini = 0.0\nsamples = 2\nvalue = [2, 0]\nclass = 0", fillcolor="#e58139"] ;
832 -> 833 ;
834 [label="gini = 0.0\nsamples = 1\nvalue = [0, 1]\nclass = 1", fillcolor="#399de5"] ;
832 -> 834 ;
835 [label="gini = 0.0\nsamples = 1\nvalue = [0, 1]\nclass = 1", fillcolor="#399de5"] ;
829 -> 835 ;
836 [label="gini = 0.0\nsamples = 1\nvalue = [0, 2]\nclass = 1", fillcolor="#399de5"] ;
828 -> 836 ;
837 [label="desc_capital_letters <= 84.5\ngini = 0.47\nsamples = 31\nvalue = [17, 27]\nclass = 1", fillcolor="#b6dbf5"] ;
827 -> 837 ;
838 [label="mean_v <= 0.46\ngini = 0.14\nsamples = 8\nvalue = [1, 12]\nclass = 1", fillcolor="#49a5e7"] ;
837 -> 838 ;
839 [label="gini = 0.0\nsamples = 7\nvalue = [0, 12]\nclass = 1", fillcolor="#399de5"] ;
838 -> 839 ;
840 [label="gini = 0.0\nsamples = 1\nvalue = [1, 0]\nclass = 0", fillcolor="#e58139"] ;
838 -> 840 ;
841 [label="mean_h <= 0.35\ngini = 0.5\nsamples = 23\nvalue = [16, 15]\nclass = 0", fillcolor="#fdf7f3"] ;
837 -> 841 ;
842 [label="mean_s <= 0.06\ngini = 0.42\nsamples = 17\nvalue = [16, 7]\nclass = 0", fillcolor="#f0b890"] ;
841 -> 842 ;
843 [label="gini = 0.0\nsamples = 1\nvalue = [0, 3]\nclass = 1", fillcolor="#399de5"] ;
842 -> 843 ;
844 [label="pub_day_of_the_week <= 4.5\ngini = 0.32\nsamples = 16\nvalue = [16, 4]\nclass = 0", fillcolor="#eca06a"] ;
842 -> 844 ;
845 [label="Angry <= 1.5\ngini = 0.2\nsamples = 14\nvalue = [16, 2]\nclass = 0", fillcolor="#e89152"] ;
844 -> 845 ;
846 [label="isInstagram <= 0.5\ngini = 0.11\nsamples = 13\nvalue = [16, 1]\nclass = 0", fillcolor="#e78945"] ;
845 -> 846 ;
847 [label="title_n_of_words <= 8.5\ngini = 0.44\nsamples = 2\nvalue = [2, 1]\nclass = 0", fillcolor="#f2c09c"] ;
846 -> 847 ;
848 [label="gini = 0.0\nsamples = 1\nvalue = [0, 1]\nclass = 1", fillcolor="#399de5"] ;
847 -> 848 ;
849 [label="gini = 0.0\nsamples = 1\nvalue = [2, 0]\nclass = 0", fillcolor="#e58139"] ;
847 -> 849 ;
850 [label="gini = 0.0\nsamples = 11\nvalue = [14, 0]\nclass = 0", fillcolor="#e58139"] ;
846 -> 850 ;
851 [label="gini = 0.0\nsamples = 1\nvalue = [0, 1]\nclass = 1", fillcolor="#399de5"] ;
845 -> 851 ;
852 [label="gini = 0.0\nsamples = 2\nvalue = [0, 2]\nclass = 1", fillcolor="#399de5"] ;
844 -> 852 ;
853 [label="gini = 0.0\nsamples = 6\nvalue = [0, 8]\nclass = 1", fillcolor="#399de5"] ;
841 -> 853 ;
854 [label="comment_count/views <= 0.0\ngini = 0.15\nsamples = 24\nvalue = [35, 3]\nclass = 0", fillcolor="#e78c4a"] ;
810 -> 854 ;
855 [label="desc_capital_letters <= 490.0\ngini = 0.1\nsamples = 23\nvalue = [35, 2]\nclass = 0", fillcolor="#e68844"] ;
854 -> 855 ;
856 [label="likes/views <= 0.03\ngini = 0.05\nsamples = 22\nvalue = [35, 1]\nclass = 0", fillcolor="#e6853f"] ;
855 -> 856 ;
857 [label="gini = 0.0\nsamples = 21\nvalue = [35, 0]\nclass = 0", fillcolor="#e58139"] ;
856 -> 857 ;
858 [label="gini = 0.0\nsamples = 1\nvalue = [0, 1]\nclass = 1", fillcolor="#399de5"] ;
856 -> 858 ;
859 [label="gini = 0.0\nsamples = 1\nvalue = [0, 1]\nclass = 1", fillcolor="#399de5"] ;
855 -> 859 ;
860 [label="gini = 0.0\nsamples = 1\nvalue = [0, 1]\nclass = 1", fillcolor="#399de5"] ;
854 -> 860 ;
861 [label="desc_n_of_urls <= 46.0\ngini = 0.11\nsamples = 166\nvalue = [237, 14]\nclass = 0", fillcolor="#e78845"] ;
809 -> 861 ;
862 [label="comment_count/views <= 0.0\ngini = 0.1\nsamples = 165\nvalue = [237, 13]\nclass = 0", fillcolor="#e68844"] ;
861 -> 862 ;
863 [label="dislikes/likes <= 0.09\ngini = 0.03\nsamples = 128\nvalue = [188, 3]\nclass = 0", fillcolor="#e5833c"] ;
862 -> 863 ;
864 [label="desc_capital_letters <= 2.5\ngini = 0.01\nsamples = 117\nvalue = [170, 1]\nclass = 0", fillcolor="#e5823a"] ;
863 -> 864 ;
865 [label="gini = 0.0\nsamples = 1\nvalue = [0, 1]\nclass = 1", fillcolor="#399de5"] ;
864 -> 865 ;
866 [label="gini = 0.0\nsamples = 116\nvalue = [170, 0]\nclass = 0", fillcolor="#e58139"] ;
864 -> 866 ;
867 [label="isInstagram <= 0.5\ngini = 0.18\nsamples = 11\nvalue = [18, 2]\nclass = 0", fillcolor="#e88f4f"] ;
863 -> 867 ;
868 [label="gini = 0.0\nsamples = 7\nvalue = [16, 0]\nclass = 0", fillcolor="#e58139"] ;
867 -> 868 ;
869 [label="title_punctuation <= 0.5\ngini = 0.5\nsamples = 4\nvalue = [2, 2]\nclass = 0", fillcolor="#ffffff"] ;
867 -> 869 ;
870 [label="gini = 0.0\nsamples = 2\nvalue = [2, 0]\nclass = 0", fillcolor="#e58139"] ;
869 -> 870 ;
871 [label="gini = 0.0\nsamples = 2\nvalue = [0, 2]\nclass = 1", fillcolor="#399de5"] ;
869 -> 871 ;
872 [label="title_capital_letters_percent <= 0.17\ngini = 0.28\nsamples = 37\nvalue = [49, 10]\nclass = 0", fillcolor="#ea9b61"] ;
862 -> 872 ;
873 [label="comment_count/views <= 0.0\ngini = 0.5\nsamples = 11\nvalue = [8, 8]\nclass = 0", fillcolor="#ffffff"] ;
872 -> 873 ;
874 [label="gini = 0.0\nsamples = 3\nvalue = [0, 6]\nclass = 1", fillcolor="#399de5"] ;
873 -> 874 ;
